{"learner":{"attributes":{"scikit_learn":"{\"_estimator_type\": \"classifier\"}"},"feature_names":[],"feature_types":[],"gradient_booster":{"model":{"cats":{"enc":[],"feature_segments":[],"sorted_idx":[]},"gbtree_model_param":{"num_parallel_tree":"1","num_trees":"150"},"iteration_indptr":[0,1,2,3,4,5,6,7,8,9,10,11,12,13,14,15,16,17,18,19,20,21,22,23,24,25,26,27,28,29,30,31,32,33,34,35,36,37,38,39,40,41,42,43,44,45,46,47,48,49,50,51,52,53,54,55,56,57,58,59,60,61,62,63,64,65,66,67,68,69,70,71,72,73,74,75,76,77,78,79,80,81,82,83,84,85,86,87,88,89,90,91,92,93,94,95,96,97,98,99,100,101,102,103,104,105,106,107,108,109,110,111,112,113,114,115,116,117,118,119,120,121,122,123,124,125,126,127,128,129,130,131,132,133,134,135,136,137,138,139,140,141,142,143,144,145,146,147,148,149,150],"tree_info":[0,0,0,0,0,0,0,0,0,0,0,0,0,0,0,0,0,0,0,0,0,0,0,0,0,0,0,0,0,0,0,0,0,0,0,0,0,0,0,0,0,0,0,0,0,0,0,0,0,0,0,0,0,0,0,0,0,0,0,0,0,0,0,0,0,0,0,0,0,0,0,0,0,0,0,0,0,0,0,0,0,0,0,0,0,0,0,0,0,0,0,0,0,0,0,0,0,0,0,0,0,0,0,0,0,0,0,0,0,0,0,0,0,0,0,0,0,0,0,0,0,0,0,0,0,0,0,0,0,0,0,0,0,0,0,0,0,0,0,0,0,0,0,0,0,0,0,0,0,0],"trees":[{"base_weights":[-5.431178E-3,-1.4172379E0,1.2438195E0,-7.66758E-2,-1.6633681E0,5.38629E-1,1.8108879E0,-1.6780396E0,8.5965353E-1,-1.8476521E0,-3.9886534E-1,1.5263027E0,-6.94156E-1,1.8570539E0,6.4343834E-1,-1.1890187E-2,-9.152351E-2,-6.910508E-1,1.6725293E0,-9.9633105E-2,-1.1673605E0,-1.6178423E0,1.0968769E0,-8.450679E-1,1.6956524E0,-1.4835029E0,4.2690575E-1,7.044765E-1,9.492769E-2,6.145903E-2,-1.7602304E-2,-8.113273E-2,8.3726E-1,2.6385104E-2,9.0042196E-2,-2.5459187E-2,-9.237822E-2,-1.7602304E-2,-9.152351E-2,8.628979E-2,-3.9436124E-2,1.0334455E-2,-6.760884E-2,9.132255E-1,9.4832115E-2,-1.8190913E0,-4.2433885E-1,8.1465356E-2,-9.744641E-2,-4.084481E-2,7.396086E-2,1.0334455E-2,5.478374E-2,-7.617911E-2,7.384539E-2,7.654666E-2,-3.0486926E-2,-2.0842453E-2,-9.5705025E-2,3.6455356E-2,-6.776589E-2,-3.7855484E-2,6.73262E-2],"categories":[],"categories_nodes":[],"categories_segments":[],"categories_sizes":[],"default_left":[0,0,0,0,0,0,0,0,0,0,0,0,0,0,0,0,0,0,0,0,0,0,0,0,0,0,0,0,0,0,0,0,0,0,0,0,0,0,0,0,0,0,0,0,0,0,0,0,0,0,0,0,0,0,0,0,0,0,0,0,0,0,0],"id":0,"left_children":[1,3,5,7,9,11,13,15,17,19,21,23,25,27,29,-1,-1,31,33,-1,35,37,39,41,43,45,47,49,-1,-1,-1,-1,51,-1,-1,53,-1,-1,-1,-1,-1,-1,-1,55,-1,57,59,-1,61,-1,-1,-1,-1,-1,-1,-1,-1,-1,-1,-1,-1,-1,-1],"loss_changes":[7.0710504E2,6.1974E1,8.408487E1,4.6790905E1,3.630719E1,1.18229744E2,5.136688E0,2.0889168E0,2.6046642E1,1.1334106E1,4.0967667E1,2.301429E1,3.911938E1,4.0426025E0,3.930741E0,0E0,0E0,1.2035119E1,9.9573135E-1,0E0,2.0726456E1,2.6520042E0,1.351439E1,2.5458999E0,6.2080383E0,8.379032E0,1.197811E1,7.6900096E0,0E0,0E0,0E0,0E0,3.4377718E-1,0E0,0E0,2.7003817E1,0E0,0E0,0E0,0E0,0E0,0E0,0E0,1.2455542E1,0E0,1.7662354E0,9.040557E0,0E0,1.4352517E1,0E0,0E0,0E0,0E0,0E0,0E0,0E0,0E0,0E0,0E0,0E0,0E0,0E0,0E0],"parents":[2147483647,0,0,1,1,2,2,3,3,4,4,5,5,6,6,7,7,8,8,9,9,10,10,11,11,12,12,13,13,14,14,17,17,18,18,20,20,21,21,22,22,23,23,24,24,25,25,26,26,27,27,32,32,35,35,43,43,45,45,46,46,48,48],"right_children":[2,4,6,8,10,12,14,16,18,20,22,24,26,28,30,-1,-1,32,34,-1,36,38,40,42,44,46,48,50,-1,-1,-1,-1,52,-1,-1,54,-1,-1,-1,-1,-1,-1,-1,56,-1,58,60,-1,62,-1,-1,-1,-1,-1,-1,-1,-1,-1,-1,-1,-1,-1,-1],"split_conditions":[-6.773291E-2,-7.8816044E-1,3.8354927E-1,-6.846215E-1,8.644233E-1,9.97426E-2,1.129916E0,-1.1469754E0,-4.8741627E-1,-2.2715756E-1,-4.3411312E-1,-1.0788912E0,1.7933513E-1,-1.4331037E0,-1.5889566E-2,-1.1890187E-2,-9.152351E-2,-3.0556586E-1,-8.780413E-1,-9.9633105E-2,-2.1938665E-1,-6.357317E-1,4.0062305E-1,-8.1825994E-2,-4.3549323E-1,2.550034E-1,4.330686E-1,6.057659E-1,9.492769E-2,6.145903E-2,-1.7602304E-2,-8.113273E-2,-1.8592086E-1,2.6385104E-2,9.0042196E-2,-2.884423E-1,-9.237822E-2,-1.7602304E-2,-9.152351E-2,8.628979E-2,-3.9436124E-2,1.0334455E-2,-6.760884E-2,-2.561989E-1,9.4832115E-2,-1.2117107E0,4.330686E-1,8.1465356E-2,2.695414E-1,-4.084481E-2,7.396086E-2,1.0334455E-2,5.478374E-2,-7.617911E-2,7.384539E-2,7.654666E-2,-3.0486926E-2,-2.0842453E-2,-9.5705025E-2,3.6455356E-2,-6.776589E-2,-3.7855484E-2,6.73262E-2],"split_indices":[0,5,0,0,12,5,5,1,12,0,0,12,12,12,15,0,0,0,14,0,5,24,5,2,12,0,5,0,0,0,0,0,2,0,0,12,0,0,0,0,0,0,0,5,0,13,5,0,0,0,0,0,0,0,0,0,0,0,0,0,0,0,0],"split_type":[0,0,0,0,0,0,0,0,0,0,0,0,0,0,0,0,0,0,0,0,0,0,0,0,0,0,0,0,0,0,0,0,0,0,0,0,0,0,0,0,0,0,0,0,0,0,0,0,0,0,0,0,0,0,0,0,0,0,0,0,0,0,0],"sum_hessian":[3.989218E2,1.872133E2,2.117085E2,2.9244268E1,1.5796904E2,9.523133E1,1.16477165E2,1.0497942E1,1.8746325E1,1.3747305E2,2.0495983E1,5.2739662E1,4.2491673E1,1.1147815E2,4.99902E0,1.249755E0,9.248187E0,6.498726E0,1.22476E1,1.11728096E2,2.5744953E1,1.1247795E1,9.248187E0,3.249363E0,4.94903E1,2.474515E1,1.7746521E1,4.499118E0,1.0697903E2,2.999412E0,1.999608E0,3.999216E0,2.49951E0,1.749657E0,1.0497942E1,9.99804E0,1.5746913E1,1.999608E0,9.248187E0,6.998628E0,2.249559E0,1.249755E0,1.999608E0,1.1247795E1,3.8242504E1,1.8246424E1,6.498726E0,4.749069E0,1.2997452E1,1.499706E0,2.999412E0,1.249755E0,1.249755E0,4.99902E0,4.99902E0,7.998432E0,3.249363E0,1.499706E0,1.6746717E1,2.999412E0,3.499314E0,9.248187E0,3.7492652E0],"tree_param":{"num_deleted":"0","num_feature":"56","num_nodes":"63","size_leaf_vector":"1"}},{"base_weights":[3.662991E-2,-1.1255647E0,1.4685085E0,-1.6441095E0,-1.9388478E-1,8.630765E-1,1.756819E0,-6.0985893E-1,-1.8142222E0,1.1803607E0,-1.0409169E0,1.4897679E0,-7.3190343E-1,1.7879786E0,-1.1227556E-2,-1.1079051E0,1.0416069E0,-9.563995E-2,-1.0051169E0,-4.8099026E-1,1.4628175E0,-1.4638993E0,9.817028E-1,-6.0580146E-1,1.6756009E0,-1.6111228E0,8.1765676E-1,8.029676E-1,1.8333498E0,-1.5982006E0,6.110442E-1,1.1093543E-3,7.094983E-2,-8.266922E-2,1.9414572E-1,3.799822E-2,-5.898827E-2,1.5580955E0,-1.3330017E-2,-6.361623E-1,-1.7573037E0,1.3216605E0,-3.3060074E-2,-6.699999E-2,3.214902E-2,9.4292676E-1,9.147305E-2,-1.143993E-2,-8.78649E-2,-2.7868095E-1,7.448748E-2,7.589531E-2,-2.441713E-2,2.9985694E-2,9.2089005E-2,-1.1432818E-2,-8.595641E-2,-3.3338096E-2,6.54332E-2,6.1080035E-2,-6.6193424E-2,8.3085395E-2,-1.25082685E-2,-7.471456E-2,4.7609784E-2,-5.488906E-2,-9.3358E-2,8.0389634E-2,1.5455668E-2,-3.9923538E-2,6.9910295E-2,3.3607494E-2,-5.5282593E-2],"categories":[],"categories_nodes":[],"categories_segments":[],"categories_sizes":[],"default_left":[0,0,0,0,0,0,0,0,0,0,0,0,0,0,0,0,0,0,0,0,0,0,0,0,0,0,0,0,0,0,0,0,0,0,0,0,0,0,0,0,0,0,0,0,0,0,0,0,0,0,0,0,0,0,0,0,0,0,0,0,0,0,0,0,0,0,0,0,0,0,0,0,0],"id":1,"left_children":[1,3,5,7,9,11,13,15,17,19,21,23,25,27,-1,29,31,-1,33,35,37,39,41,43,45,47,49,51,53,55,57,-1,-1,-1,59,-1,-1,61,-1,63,65,67,-1,-1,-1,69,-1,-1,-1,71,-1,-1,-1,-1,-1,-1,-1,-1,-1,-1,-1,-1,-1,-1,-1,-1,-1,-1,-1,-1,-1,-1,-1],"loss_changes":[6.637213E2,1.0604971E2,2.9672333E1,2.3756012E1,9.41862E1,6.0669113E1,7.8146667E0,1.8810207E1,7.715973E0,1.5213459E1,4.416038E1,1.7807495E1,2.5137598E1,3.8159485E0,0E0,1.5284777E1,2.08032E0,0E0,1.2162678E1,5.44536E0,4.8107834E0,9.009903E0,6.0321426E0,4.755382E0,2.769928E0,1.9199066E0,5.5675683E0,7.1940565E0,6.37207E-2,1.8404007E0,4.876063E0,0E0,0E0,0E0,1.134881E1,0E0,0E0,5.1799088E0,0E0,1.8434536E1,1.3987732E-1,1.8166294E0,0E0,0E0,0E0,8.23902E0,0E0,0E0,0E0,3.4951994E0,0E0,0E0,0E0,0E0,0E0,0E0,0E0,0E0,0E0,0E0,0E0,0E0,0E0,0E0,0E0,0E0,0E0,0E0,0E0,0E0,0E0,0E0,0E0],"parents":[2147483647,0,0,1,1,2,2,3,3,4,4,5,5,6,6,7,7,8,8,9,9,10,10,11,11,12,12,13,13,15,15,16,16,18,18,19,19,20,20,21,21,22,22,23,23,24,24,25,25,26,26,27,27,28,28,29,29,30,30,34,34,37,37,39,39,40,40,41,41,45,45,49,49],"right_children":[2,4,6,8,10,12,14,16,18,20,22,24,26,28,-1,30,32,-1,34,36,38,40,42,44,46,48,50,52,54,56,58,-1,-1,-1,60,-1,-1,62,-1,64,66,68,-1,-1,-1,70,-1,-1,-1,72,-1,-1,-1,-1,-1,-1,-1,-1,-1,-1,-1,-1,-1,-1,-1,-1,-1,-1,-1,-1,-1,-1,-1],"split_conditions":[1.0034186E-1,-2.540892E-1,3.8354927E-1,-8.154739E-1,-2.6776567E-1,3.692639E-1,1.5806127E0,4.6830648E-1,8.644233E-1,-8.587007E-1,7.497593E-1,-9.863233E-1,1.1813085E-1,-1.4331037E0,-1.1227556E-2,-4.544469E-1,-6.8882203E-1,-9.563995E-2,-4.7744268E-1,-8.263158E-1,1.2000834E0,1.8274654E-2,8.2349765E-1,-3.0013636E-1,-3.7110674E-1,4.4039908E-1,2.550034E-1,-3.2663736E-1,-1.6334032E0,-1.022966E0,-8.496171E-1,1.1093543E-3,7.094983E-2,-8.266922E-2,2.4871989E-1,3.799822E-2,-5.898827E-2,3.000215E0,-1.3330017E-2,-1.4883655E-2,2.7070355E-1,2.2681251E-1,-3.3060074E-2,-6.699999E-2,3.214902E-2,-7.628959E-1,9.147305E-2,-1.143993E-2,-8.78649E-2,8.371504E-1,7.448748E-2,7.589531E-2,-2.441713E-2,2.9985694E-2,9.2089005E-2,-1.1432818E-2,-8.595641E-2,-3.3338096E-2,6.54332E-2,6.1080035E-2,-6.6193424E-2,8.3085395E-2,-1.25082685E-2,-7.471456E-2,4.7609784E-2,-5.488906E-2,-9.3358E-2,8.0389634E-2,1.5455668E-2,-3.9923538E-2,6.9910295E-2,3.3607494E-2,-5.5282593E-2],"split_indices":[0,0,0,5,5,5,5,12,12,12,12,12,12,12,0,0,0,0,0,5,6,5,5,31,12,5,0,11,30,23,37,0,0,0,5,0,0,45,0,12,5,34,0,0,0,32,0,0,0,5,0,0,0,0,0,0,0,0,0,0,0,0,0,0,0,0,0,0,0,0,0,0,0],"split_type":[0,0,0,0,0,0,0,0,0,0,0,0,0,0,0,0,0,0,0,0,0,0,0,0,0,0,0,0,0,0,0,0,0,0,0,0,0,0,0,0,0,0,0,0,0,0,0,0,0,0,0,0,0,0,0,0,0,0,0,0,0,0,0,0,0,0,0,0,0,0,0,0,0],"sum_hessian":[3.968486E2,2.191709E2,1.776777E2,1.4031252E2,7.8858376E1,5.860496E1,1.1907275E2,2.0466347E1,1.1984617E2,2.992073E1,4.8937645E1,4.2120968E1,1.6483994E1,1.1732526E2,1.7474887E0,1.5977129E1,4.489217E0,1.0561459E2,1.4231576E1,4.2456784E0,2.5675053E1,4.070203E1,8.235617E0,3.246904E0,3.8874065E1,1.0491432E1,5.992561E0,5.9895425E0,1.1133572E2,1.2485997E1,3.4911313E0,1.4989595E0,2.9902575E0,8.992154E0,5.2394223E0,1.4979328E0,2.7477458E0,2.44283E1,1.2467511E0,1.1480912E1,2.9221117E1,6.9856467E0,1.2499696E0,1.9987377E0,1.2481662E0,7.983851E0,3.0890215E1,1.248649E0,9.242783E0,2.4999392E0,3.4926214E0,3.742189E0,2.2473538E0,1.2452894E0,1.1009042E2,1.2475818E0,1.1238416E1,1.2485102E0,2.242621E0,3.2410254E0,1.9983966E0,2.3181082E1,1.2472185E0,7.492322E0,3.9885905E0,5.741982E0,2.3479136E1,4.988184E0,1.9974627E0,1.4984857E0,6.4853654E0,1.2499696E0,1.2499696E0],"tree_param":{"num_deleted":"0","num_feature":"56","num_nodes":"73","size_leaf_vector":"1"}},{"base_weights":[4.5590878E-2,-5.7640177E-1,3.604162E-1,-2.5035462E-1,-1.1960733E0,7.4306893E-1,-1.406048E-1,1.0554166E0,-3.5915902E-1,-6.632518E-1,-1.6291823E0,1.2032533E0,3.9626566E-1,1.2985479E0,-2.327326E-1,-1.881007E-2,7.5733624E-2,-3.742972E-2,-9.1948235E-1,-3.2014316E-1,-1.3511916E0,-1.0546624E-2,-8.485591E-2,1.2507117E0,-3.1656478E-2,-3.926631E-1,5.894743E-1,8.942573E-3,7.5528614E-2,-1.0300164E-1,-1.2103505E0,8.234304E-1,-2.6292592E-1,4.201219E-2,-1.1769462E0,-2.6972285E-2,-6.775259E-2,-1.0762085E-2,-7.798838E-2,1.2960991E0,-9.799697E-3,-9.3705803E-1,6.748021E-1,7.509629E-1,-3.120261E-1,4.5487415E-2,-6.890639E-1,-1.3812969E0,9.126094E-3,-1.0366716E-2,5.521802E-2,5.1684756E-2,-2.06947E-2,-3.2357898E-2,6.170656E-2,3.022837E-2,-6.520237E-2,4.823814E-2,-1.5548954E-2,-1.6384696E-3,6.711759E-2,-6.3088916E-2,5.766611E-3,-3.8918674E-2,6.338968E-2,7.1551576E-2,2.853269E-2,2.2185959E-2,-4.929224E-2,1.9611541E-2,-1.3740631E-2,-4.4890855E-2,2.6036475E-2,-8.215152E-2,-2.8145825E-2],"categories":[],"categories_nodes":[],"categories_segments":[],"categories_sizes":[],"default_left":[0,0,0,0,0,0,0,0,0,0,0,0,0,0,0,0,0,0,0,0,0,0,0,0,0,0,0,0,0,0,0,0,0,0,0,0,0,0,0,0,0,0,0,0,0,0,0,0,0,0,0,0,0,0,0,0,0,0,0,0,0,0,0,0,0,0,0,0,0,0,0,0,0,0,0],"id":2,"left_children":[1,3,5,7,9,11,13,15,17,19,21,23,25,27,29,-1,-1,31,33,35,37,-1,-1,39,-1,41,43,-1,-1,45,47,49,51,53,55,57,-1,-1,-1,59,-1,61,63,65,67,69,71,73,-1,-1,-1,-1,-1,-1,-1,-1,-1,-1,-1,-1,-1,-1,-1,-1,-1,-1,-1,-1,-1,-1,-1,-1,-1,-1,-1],"loss_changes":[7.637238E1,2.618747E1,4.9732014E1,1.2762755E1,9.288406E0,2.2971504E1,1.5275538E1,5.1447253E0,1.460472E1,4.72097E0,1.9639244E0,6.2519455E0,1.3229771E1,1.3789454E0,1.34441395E1,0E0,0E0,1.0432734E1,7.3713226E0,4.781023E0,1.3121777E0,0E0,0E0,4.2862015E0,0E0,1.0729767E1,1.0264835E1,0E0,0E0,8.346083E0,3.214384E0,3.462378E0,8.739731E0,6.7244825E0,6.0788918E0,4.07244E0,0E0,0E0,0E0,3.711609E0,0E0,4.220975E0,6.5448227E0,6.3844795E0,6.1274357E0,8.678344E0,5.3609924E0,1.4736271E0,0E0,0E0,0E0,0E0,0E0,0E0,0E0,0E0,0E0,0E0,0E0,0E0,0E0,0E0,0E0,0E0,0E0,0E0,0E0,0E0,0E0,0E0,0E0,0E0,0E0,0E0,0E0],"parents":[2147483647,0,0,1,1,2,2,3,3,4,4,5,5,6,6,7,7,8,8,9,9,10,10,11,11,12,12,13,13,14,14,17,17,18,18,19,19,20,20,23,23,25,25,26,26,29,29,30,30,31,31,32,32,33,33,34,34,35,35,39,39,41,41,42,42,43,43,44,44,45,45,46,46,47,47],"right_children":[2,4,6,8,10,12,14,16,18,20,22,24,26,28,30,-1,-1,32,34,36,38,-1,-1,40,-1,42,44,-1,-1,46,48,50,52,54,56,58,-1,-1,-1,60,-1,62,64,66,68,70,72,74,-1,-1,-1,-1,-1,-1,-1,-1,-1,-1,-1,-1,-1,-1,-1,-1,-1,-1,-1,-1,-1,-1,-1,-1,-1,-1,-1],"split_conditions":[-3.040674E-1,3.3408144E-1,1.2001245E-1,-1.3903974E0,8.133511E-1,5.993976E-1,1.3695531E-2,-5.5116993E-1,1.3328059E0,6.3440824E-1,-1.2717476E0,1.605944E0,5.4239744E-1,-7.463608E-1,1.193264E0,-1.881007E-2,7.5733624E-2,-4.870665E-1,-7.267627E-1,-4.464477E-1,-7.801328E-1,-1.0546624E-2,-8.485591E-2,1.1995485E0,-3.1656478E-2,-1.2711047E-1,5.1890373E-1,8.942573E-3,7.5528614E-2,6.0374075E-1,7.264555E-1,-5.816354E-1,-9.322532E-1,-1.9445281E-2,-1.388923E0,-7.4016297E-1,-6.775259E-2,-1.0762085E-2,-7.798838E-2,-1.2218004E0,-9.799697E-3,1.3060377E0,-6.4186543E-1,8.575884E-1,-2.0866308E-1,-7.719245E-2,8.0760646E-1,6.235807E-1,9.126094E-3,-1.0366716E-2,5.521802E-2,5.1684756E-2,-2.06947E-2,-3.2357898E-2,6.170656E-2,3.022837E-2,-6.520237E-2,4.823814E-2,-1.5548954E-2,-1.6384696E-3,6.711759E-2,-6.3088916E-2,5.766611E-3,-3.8918674E-2,6.338968E-2,7.1551576E-2,2.853269E-2,2.2185959E-2,-4.929224E-2,1.9611541E-2,-1.3740631E-2,-4.4890855E-2,2.6036475E-2,-8.215152E-2,-2.8145825E-2],"split_indices":[12,5,5,5,54,54,54,17,50,29,30,10,52,20,5,0,0,11,5,12,16,0,0,20,0,44,18,0,0,32,33,25,20,33,20,37,0,0,0,27,0,41,28,50,21,2,24,16,0,0,0,0,0,0,0,0,0,0,0,0,0,0,0,0,0,0,0,0,0,0,0,0,0,0,0],"split_type":[0,0,0,0,0,0,0,0,0,0,0,0,0,0,0,0,0,0,0,0,0,0,0,0,0,0,0,0,0,0,0,0,0,0,0,0,0,0,0,0,0,0,0,0,0,0,0,0,0,0,0,0,0,0,0,0,0,0,0,0,0,0,0,0,0,0,0,0,0,0,0,0,0,0,0],"sum_hessian":[3.879542E2,1.3009596E2,2.5785822E2,8.616387E1,4.393208E1,1.4592528E2,1.11932945E2,5.9582524E0,8.020562E1,2.0833532E1,2.3098549E1,6.1650158E1,8.427512E1,5.9464717E0,1.0598647E2,1.4910654E0,4.467187E0,5.162825E1,2.8577372E1,1.4878348E1,5.955183E0,1.2435093E0,2.185504E1,6.0407936E1,1.2422216E0,1.6375742E1,6.789938E1,1.2402542E0,4.7062173E0,9.454554E1,1.1440936E1,1.016613E1,4.146212E1,6.2127557E0,2.2364616E1,1.2393544E1,2.4848042E0,1.2390432E0,4.71614E0,5.8671352E1,1.7365867E0,1.0925851E1,5.449892E0,5.772577E1,1.0173612E1,7.616914E1,1.8376392E1,1.019769E1,1.2432456E0,2.2334208E0,7.932709E0,3.7142644E0,3.7747856E1,4.226519E0,1.9862362E0,1.2391727E0,2.1125444E1,2.2254462E0,1.0168098E1,1.9832323E0,5.6688118E1,8.197504E0,2.728346E0,1.4888119E0,3.9610803E0,1.0643882E1,4.708189E1,4.9562445E0,5.2173667E0,3.6466965E1,3.9702183E1,1.589205E1,2.4843416E0,6.9630995E0,3.2345905E0],"tree_param":{"num_deleted":"0","num_feature":"56","num_nodes":"75","size_leaf_vector":"1"}},{"base_weights":[2.4836853E-2,-1.4938881E0,1.0093246E0,-1.6549535E0,-7.4824053E-1,2.7113304E-1,1.5456488E0,-1.7227554E0,-1.105478E0,-1.1157756E0,5.5959564E-1,-3.8256183E-1,9.307512E-1,1.1803318E0,1.7241224E0,-3.458045E-2,-1.7373308E0,-1.3525773E0,2.3597762E-1,-4.9090865E-1,-1.5147082E0,-3.7491534E-2,1.0324998E0,-5.7380956E-1,8.5258734E-1,-4.745471E-2,1.2915902E0,-6.839337E-1,1.3373923E0,8.667841E-2,2.8521974E-2,-3.4645587E-2,-8.7621234E-2,-2.0951979E-4,-1.5075985E0,-3.316456E-2,5.148344E-2,1.7859304E-1,-6.474065E-2,-8.4517725E-2,-2.057533E-2,-1.1196966E-2,7.1567945E-2,-9.7263414E-1,-3.1902343E-2,6.673334E-2,-1.5744483E-2,-7.04177E-1,8.6027694E-1,6.115038E-1,1.5273532E0,-6.5548524E-2,1.7195513E-2,1.6365394E-1,1.4841292E0,-8.444256E-2,-3.0331567E-2,4.730577E-2,-4.0020186E-2,-6.1743665E-2,-6.6759237E-3,-4.921222E-2,1.8813826E-2,-6.306632E-2,1.2630159E-2,-2.01961E-2,6.503181E-2,4.8114587E-2,-4.2444725E-2,1.4238327E-2,8.0652885E-2,5.296973E-2,-4.19009E-2,7.4375304E-3,7.611929E-2],"categories":[],"categories_nodes":[],"categories_segments":[],"categories_sizes":[],"default_left":[0,0,0,0,0,0,0,0,0,0,0,0,0,0,0,0,0,0,0,0,0,0,0,0,0,0,0,0,0,0,0,0,0,0,0,0,0,0,0,0,0,0,0,0,0,0,0,0,0,0,0,0,0,0,0,0,0,0,0,0,0,0,0,0,0,0,0,0,0,0,0,0,0,0,0],"id":3,"left_children":[1,3,5,7,9,11,13,15,17,19,21,23,25,27,29,-1,31,33,35,37,39,-1,41,43,45,47,49,51,53,-1,-1,-1,-1,-1,55,-1,-1,57,-1,-1,-1,-1,-1,59,61,-1,-1,63,65,67,69,-1,-1,71,73,-1,-1,-1,-1,-1,-1,-1,-1,-1,-1,-1,-1,-1,-1,-1,-1,-1,-1,-1,-1],"loss_changes":[5.973945E2,1.7634644E1,9.554811E1,2.8793335E0,1.4919703E1,4.486111E1,7.1047363E0,4.8944092E-1,5.9194126E0,5.126913E0,5.2266226E0,1.2902273E1,1.8298035E1,1.5314308E1,1.3702393E-2,0E0,5.2420044E-1,3.0069427E0,3.1664097E0,5.9664135E0,1.9966812E0,0E0,3.1786237E0,9.932576E0,4.6120696E0,9.480467E0,5.123417E0,3.3400683E0,7.6273193E0,0E0,0E0,0E0,0E0,0E0,1.0863972E0,0E0,0E0,5.786218E0,0E0,0E0,0E0,0E0,0E0,5.67136E0,8.369729E0,0E0,0E0,5.2163444E0,4.254936E0,6.653345E0,2.4571152E0,0E0,0E0,6.4523206E0,1.842247E0,0E0,0E0,0E0,0E0,0E0,0E0,0E0,0E0,0E0,0E0,0E0,0E0,0E0,0E0,0E0,0E0,0E0,0E0,0E0,0E0],"parents":[2147483647,0,0,1,1,2,2,3,3,4,4,5,5,6,6,7,7,8,8,9,9,10,10,11,11,12,12,13,13,14,14,16,16,17,17,18,18,19,19,20,20,22,22,23,23,24,24,25,25,26,26,27,27,28,28,34,34,37,37,43,43,44,44,47,47,48,48,49,49,50,50,53,53,54,54],"right_children":[2,4,6,8,10,12,14,16,18,20,22,24,26,28,30,-1,32,34,36,38,40,-1,42,44,46,48,50,52,54,-1,-1,-1,-1,-1,56,-1,-1,58,-1,-1,-1,-1,-1,60,62,-1,-1,64,66,68,70,-1,-1,72,74,-1,-1,-1,-1,-1,-1,-1,-1,-1,-1,-1,-1,-1,-1,-1,-1,-1,-1,-1,-1],"split_conditions":[-1.8590298E-1,-3.3436057E-1,2.695414E-1,7.71577E-1,4.5066828E-1,6.0200997E-2,5.7197005E-1,-4.694756E-1,-4.7744268E-1,-1.8500794E-1,-4.6846774E-1,1.7921249E0,5.201346E-1,-9.4446987E-1,1.4430312E0,-3.458045E-2,-1.6226969E0,-7.740935E-1,2.8226517E-2,1.0708697E0,1.5968099E0,-3.7491534E-2,4.0554106E-1,2.0286365E-1,2.4772453E-1,8.0867016E-1,-6.313677E-1,1.4498547E0,1.4290163E-1,8.667841E-2,2.8521974E-2,-3.4645587E-2,-8.7621234E-2,-2.0951979E-4,6.5505123E-1,-3.316456E-2,5.148344E-2,4.734267E-1,-6.474065E-2,-8.4517725E-2,-2.057533E-2,-1.1196966E-2,7.1567945E-2,1.5318878E-1,3.4286064E-1,6.673334E-2,-1.5744483E-2,3.0736288E-1,-4.8899198E-1,5.592264E-1,-1.0116353E0,-6.5548524E-2,1.7195513E-2,7.1796423E-1,-1.4548876E0,-8.444256E-2,-3.0331567E-2,4.730577E-2,-4.0020186E-2,-6.1743665E-2,-6.6759237E-3,-4.921222E-2,1.8813826E-2,-6.306632E-2,1.2630159E-2,-2.01961E-2,6.503181E-2,4.8114587E-2,-4.2444725E-2,1.4238327E-2,8.0652885E-2,5.296973E-2,-4.19009E-2,7.4375304E-3,7.611929E-2],"split_indices":[0,0,0,12,12,12,0,44,0,13,30,42,42,12,21,0,35,3,39,49,48,0,52,34,27,12,3,45,52,0,0,0,0,0,32,0,0,16,0,0,0,0,0,0,52,0,0,33,35,28,31,0,0,49,10,0,0,0,0,0,0,0,0,0,0,0,0,0,0,0,0,0,0,0,0],"split_type":[0,0,0,0,0,0,0,0,0,0,0,0,0,0,0,0,0,0,0,0,0,0,0,0,0,0,0,0,0,0,0,0,0,0,0,0,0,0,0,0,0,0,0,0,0,0,0,0,0,0,0,0,0,0,0,0,0,0,0,0,0,0,0,0,0,0,0,0,0,0,0,0,0,0,0],"sum_hessian":[3.9754218E2,1.5614574E2,2.4139644E2,1.2740568E2,2.8740055E1,1.0221468E2,1.3918176E2,1.11510666E2,1.5895008E1,2.2549835E1,6.1902204E0,5.1548805E1,5.0665874E1,4.817861E1,9.100314E1,2.229552E0,1.0928111E2,1.3415543E1,2.4794652E0,9.655899E0,1.2893936E1,1.4870722E0,4.703148E0,4.5100914E1,6.4478917E0,1.3887216E1,3.677866E1,3.4829025E0,4.469571E1,8.976556E1,1.237589E0,2.2250478E0,1.0705607E2,1.4892192E0,1.1926324E1,1.2394444E0,1.240021E0,5.692749E0,3.96315E0,1.0663862E1,2.230074E0,1.2389386E0,3.4642096E0,2.5522453E1,1.957846E1,4.4621544E0,1.9857372E0,8.18779E0,5.699426E0,1.03928795E1,2.638578E1,1.9921398E0,1.4907627E0,5.2018404E0,3.949387E1,9.200849E0,2.7254748E0,3.2098498E0,2.4828992E0,1.9086067E1,6.436386E0,5.4504476E0,1.4128013E1,4.9733944E0,3.2143953E0,1.4937782E0,4.205648E0,8.655018E0,1.7378615E0,1.9813803E0,2.44044E1,2.715706E0,2.4861343E0,1.2360666E0,3.8257805E1],"tree_param":{"num_deleted":"0","num_feature":"56","num_nodes":"75","size_leaf_vector":"1"}},{"base_weights":[-3.1717442E-2,-1.3863741E0,9.263464E-1,-2.678604E-1,-1.5809473E0,2.9437622E-1,1.5812796E0,-1.3299227E0,5.948528E-1,-1.6935586E0,-6.970099E-1,1.1713312E0,-8.0498886E-1,1.627212E0,2.0294854E-2,-8.166849E-2,3.323276E-2,-8.705554E-1,1.3783159E0,-1.7380054E0,-1.066305E0,-7.830438E-2,7.514431E-1,7.094611E-2,1.5466231E0,-1.1569653E0,1.003009E0,6.105774E-1,1.6571018E0,-4.751084E-2,5.430257E-2,-7.097535E-2,3.04698E-2,8.6475554E-4,8.092244E-2,-2.7160093E-2,-8.731788E-2,-3.7023623E-2,-7.7949844E-2,6.458301E-2,-3.8953412E-2,7.3514245E-2,-8.964589E-1,6.8071085E-1,1.6658523E0,-3.7904564E-1,-1.5395916E0,1.3576213E0,-3.470097E-2,6.3351795E-2,-3.3558037E-2,1.0144818E0,8.414852E-2,-5.5883583E-2,4.3938898E-2,-7.271141E-2,3.042118E-2,6.1107755E-2,-1.1028647E-2,8.538448E-2,6.9977865E-3,-6.929829E-2,2.6758565E-2,-2.63179E-2,-8.211777E-2,8.189879E-3,7.77085E-2,6.960726E-2,-1.7420342E-2],"categories":[],"categories_nodes":[],"categories_segments":[],"categories_sizes":[],"default_left":[0,0,0,0,0,0,0,0,0,0,0,0,0,0,0,0,0,0,0,0,0,0,0,0,0,0,0,0,0,0,0,0,0,0,0,0,0,0,0,0,0,0,0,0,0,0,0,0,0,0,0,0,0,0,0,0,0,0,0,0,0,0,0,0,0,0,0,0,0],"id":4,"left_children":[1,3,5,7,9,11,13,15,17,19,21,23,25,27,29,-1,-1,31,33,35,37,-1,39,41,43,45,47,49,51,-1,-1,-1,-1,-1,-1,-1,-1,53,-1,-1,-1,-1,55,57,59,61,63,65,-1,-1,-1,67,-1,-1,-1,-1,-1,-1,-1,-1,-1,-1,-1,-1,-1,-1,-1,-1,-1],"loss_changes":[5.085165E2,3.4899048E1,9.45334E1,2.3930315E1,1.2561188E1,1.14742294E2,8.0321045E0,8.123657E0,1.7991669E1,1.5411072E0,2.2953346E1,2.7174072E1,3.4868908E1,2.3081665E0,5.4050407E0,0E0,0E0,5.5025344E0,3.2133236E0,1.7010498E-1,5.339922E0,0E0,6.9287E0,2.5482613E1,3.9473648E0,1.2751976E1,6.4589567E0,4.8082905E0,4.736328E-2,0E0,0E0,0E0,0E0,0E0,0E0,0E0,0E0,5.4058723E0,0E0,0E0,0E0,0E0,1.0265064E1,4.001595E0,2.4786453E0,1.5560407E1,2.2284927E0,1.6040583E0,0E0,0E0,0E0,3.8832555E0,0E0,0E0,0E0,0E0,0E0,0E0,0E0,0E0,0E0,0E0,0E0,0E0,0E0,0E0,0E0,0E0,0E0],"parents":[2147483647,0,0,1,1,2,2,3,3,4,4,5,5,6,6,7,7,8,8,9,9,10,10,11,11,12,12,13,13,14,14,17,17,18,18,19,19,20,20,22,22,23,23,24,24,25,25,26,26,27,27,28,28,37,37,42,42,43,43,44,44,45,45,46,46,47,47,51,51],"right_children":[2,4,6,8,10,12,14,16,18,20,22,24,26,28,30,-1,-1,32,34,36,38,-1,40,42,44,46,48,50,52,-1,-1,-1,-1,-1,-1,-1,-1,54,-1,-1,-1,-1,56,58,60,62,64,66,-1,-1,-1,68,-1,-1,-1,-1,-1,-1,-1,-1,-1,-1,-1,-1,-1,-1,-1,-1,-1],"split_conditions":[-1.8590298E-1,-8.061233E-1,3.8354927E-1,-6.3288486E-1,8.644233E-1,9.250456E-2,1.3543879E0,7.044001E-1,-4.8741627E-1,-2.2715756E-1,-4.7744268E-1,-4.2595333E-1,8.0867016E-1,-1.4331037E0,6.5624374E-1,-8.166849E-2,3.323276E-2,-3.1485626E-1,-4.607931E-1,-1.7492697E0,-2.1938665E-1,-7.830438E-2,2.4871989E-1,-6.3349676E-1,-1.17603615E-1,4.330686E-1,7.106625E-1,-3.3106714E-1,-1.1530043E0,-4.751084E-2,5.430257E-2,-7.097535E-2,3.04698E-2,8.6475554E-4,8.092244E-2,-2.7160093E-2,-8.731788E-2,-3.841488E-1,-7.7949844E-2,6.458301E-2,-3.8953412E-2,7.3514245E-2,1.3734438E-1,-3.851621E-1,1.1650236E0,-3.040674E-1,-8.6591417E-1,-1.1480108E0,-3.470097E-2,6.3351795E-2,-3.3558037E-2,6.214825E-1,8.414852E-2,-5.5883583E-2,4.3938898E-2,-7.271141E-2,3.042118E-2,6.1107755E-2,-1.1028647E-2,8.538448E-2,6.9977865E-3,-6.929829E-2,2.6758565E-2,-2.63179E-2,-8.211777E-2,8.189879E-3,7.77085E-2,6.960726E-2,-1.7420342E-2],"split_indices":[0,5,0,0,12,5,5,12,12,0,0,12,12,12,0,0,0,0,34,11,5,0,5,5,0,5,3,11,2,0,0,0,0,0,0,0,0,12,0,0,0,0,0,5,25,12,34,3,0,0,0,5,0,0,0,0,0,0,0,0,0,0,0,0,0,0,0,0,0],"split_type":[0,0,0,0,0,0,0,0,0,0,0,0,0,0,0,0,0,0,0,0,0,0,0,0,0,0,0,0,0,0,0,0,0,0,0,0,0,0,0,0,0,0,0,0,0,0,0,0,0,0,0,0,0,0,0,0,0,0,0,0,0,0,0,0,0,0,0,0,0],"sum_hessian":[3.8982574E2,1.6130339E2,2.2852237E2,2.4254108E1,1.3704929E2,1.1703769E2,1.1148468E2,1.062832E1,1.3625788E1,1.2075011E2,1.6299175E1,6.506799E1,5.1969692E1,1.0825677E2,3.227916E0,9.382065E0,1.2462549E0,4.7082334E0,8.917555E0,1.1110636E2,9.643748E0,1.01362E1,6.162976E0,1.6850391E1,4.8217606E1,4.380243E1,8.167261E0,3.703909E0,1.0455286E2,1.7461905E0,1.4817255E0,3.4641385E0,1.2440947E0,1.4981854E0,7.419369E0,1.229702E0,1.09876656E2,3.4699101E0,6.173838E0,4.670509E0,1.492467E0,6.675109E0,1.0175282E1,6.647663E0,4.1569942E1,1.5097748E1,2.8704681E1,6.9210367E0,1.2462243E0,2.4569972E0,1.2469116E0,5.602169E0,9.895068E1,1.4905856E0,1.9793246E0,7.448304E0,2.7269778E0,3.9304426E0,2.7172205E0,4.0344627E1,1.2253155E0,6.9390507E0,8.158697E0,3.206931E0,2.5497751E1,1.2375575E0,5.6834793E0,4.369807E0,1.2323623E0],"tree_param":{"num_deleted":"0","num_feature":"56","num_nodes":"69","size_leaf_vector":"1"}},{"base_weights":[-1.27154775E-2,3.6127028E-1,-4.6535745E-1,-2.3460414E-1,6.0841495E-1,-8.290564E-1,-2.81219E-2,9.568405E-1,-3.65338E-1,1.2607609E0,4.5099354E-1,-5.5761975E-1,-1.1528921E0,5.1946217E-1,-3.7007907E-1,6.794543E-2,-4.4244167E-5,-3.723547E-2,-9.353222E-1,1.0609959E-1,1.4090139E0,9.301631E-1,2.7503732E-1,1.11426905E-1,-7.0000184E-1,1.6224547E-1,-1.2858881E0,-2.8101918E-1,8.1155515E-1,-2.6987758E-2,-8.2912606E-1,4.121075E-1,-4.2058223E-1,2.9721025E-2,-1.0595313E0,4.094107E-2,-3.8982328E-2,7.74587E-2,6.643276E-1,1.12925E0,-1.274083E-1,5.0263894E-1,-1.8527298E-1,5.3513076E-2,-3.9931527E-1,-4.3099612E-1,-1.2343128E0,5.5860203E-2,-4.233321E-2,-1.3998266E0,-6.653656E-1,4.357913E-2,-7.06916E-1,-9.171976E-2,1.1654996E0,5.66111E-2,-2.0473768E-1,3.794545E-2,-1.0007446E0,6.373357E-2,9.952473E-4,-2.9304132E-2,3.43578E-2,-5.9482433E-2,1.7292393E-2,5.663075E-2,-3.0309875E-2,6.208492E-2,-6.330795E-3,2.6739264E-2,-5.7483863E-2,-9.62258E-3,3.2723717E-2,7.345085E-3,-3.5940316E-2,-5.439004E-2,1.3422198E-2,-2.7311055E-2,4.3959077E-2,-5.870086E-3,-7.3704466E-2,-8.343717E-3,-7.313763E-2,2.9426476E-2,-4.88436E-2,3.2838617E-2,-5.78937E-2,5.003491E-2,-2.5653917E-2,6.451278E-2,-1.22522535E-2,3.231218E-2,-2.0434642E-2,1.9208942E-2,-6.1817225E-2],"categories":[],"categories_nodes":[],"categories_segments":[],"categories_sizes":[],"default_left":[0,0,0,0,0,0,0,0,0,0,0,0,0,0,0,0,0,0,0,0,0,0,0,0,0,0,0,0,0,0,0,0,0,0,0,0,0,0,0,0,0,0,0,0,0,0,0,0,0,0,0,0,0,0,0,0,0,0,0,0,0,0,0,0,0,0,0,0,0,0,0,0,0,0,0,0,0,0,0,0,0,0,0,0,0,0,0,0,0,0,0,0,0,0,0],"id":5,"left_children":[1,3,5,7,9,11,13,15,17,19,21,23,25,27,29,-1,-1,31,33,35,37,39,41,43,45,47,49,51,53,55,57,59,61,-1,63,-1,-1,-1,65,67,69,71,73,-1,75,77,79,-1,-1,81,83,-1,85,87,89,-1,91,-1,93,-1,-1,-1,-1,-1,-1,-1,-1,-1,-1,-1,-1,-1,-1,-1,-1,-1,-1,-1,-1,-1,-1,-1,-1,-1,-1,-1,-1,-1,-1,-1,-1,-1,-1,-1,-1],"loss_changes":[6.661788E1,3.1880062E1,2.828757E1,1.0303005E1,1.5103107E1,7.896988E0,1.5523897E1,2.5406442E0,1.0869311E1,4.8336716E0,1.0240835E1,5.297247E0,7.793331E0,7.6847706E0,8.007725E0,0E0,0E0,6.7270303E0,4.669384E0,3.4121377E0,1.6550102E0,7.095768E0,9.781872E0,5.557951E0,5.980942E0,5.638451E0,1.8608551E0,5.1660843E0,7.659297E0,6.4569907E0,6.693756E0,6.071034E0,4.25745E0,0E0,4.072893E0,0E0,0E0,0E0,4.1518793E0,4.095627E0,4.764139E0,6.6852865E0,5.657746E0,0E0,3.76942E0,5.262119E0,3.7469444E0,0E0,0E0,2.2743683E0,3.7124338E0,0E0,5.262086E0,4.001375E0,3.3156738E0,0E0,4.9576178E0,0E0,7.027466E0,0E0,0E0,0E0,0E0,0E0,0E0,0E0,0E0,0E0,0E0,0E0,0E0,0E0,0E0,0E0,0E0,0E0,0E0,0E0,0E0,0E0,0E0,0E0,0E0,0E0,0E0,0E0,0E0,0E0,0E0,0E0,0E0,0E0,0E0,0E0,0E0],"parents":[2147483647,0,0,1,1,2,2,3,3,4,4,5,5,6,6,7,7,8,8,9,9,10,10,11,11,12,12,13,13,14,14,17,17,18,18,19,19,20,20,21,21,22,22,23,23,24,24,25,25,26,26,27,27,28,28,29,29,30,30,31,31,32,32,34,34,38,38,39,39,40,40,41,41,42,42,44,44,45,45,46,46,49,49,50,50,52,52,53,53,54,54,56,56,58,58],"right_children":[2,4,6,8,10,12,14,16,18,20,22,24,26,28,30,-1,-1,32,34,36,38,40,42,44,46,48,50,52,54,56,58,60,62,-1,64,-1,-1,-1,66,68,70,72,74,-1,76,78,80,-1,-1,82,84,-1,86,88,90,-1,92,-1,94,-1,-1,-1,-1,-1,-1,-1,-1,-1,-1,-1,-1,-1,-1,-1,-1,-1,-1,-1,-1,-1,-1,-1,-1,-1,-1,-1,-1,-1,-1,-1,-1,-1,-1,-1,-1],"split_conditions":[9.97426E-2,-3.939744E-1,8.4040694E-2,-1.3903974E0,3.444189E-1,8.800302E-1,6.6599345E-1,1.7347026E-1,1.80455E0,-6.6844463E-1,-7.8816044E-1,-6.8944687E-1,-1.1469754E0,1.0607888E-1,-2.85273E-2,6.794543E-2,-4.4244167E-5,-2.3656776E-2,-1.3232483E0,-1.07734196E-1,6.101674E-1,7.671577E-1,3.1601897E-1,-2.2382413E-1,6.103572E-1,1.409065E0,1.2543291E0,-4.803178E-1,-6.1338973E-1,-8.588162E-1,-8.8066745E-1,-7.267627E-1,7.771893E-1,2.9721025E-2,7.4991816E-1,4.094107E-2,-3.8982328E-2,7.74587E-2,2.70343E-1,9.4049627E-1,3.559799E-1,-1.5340793E-1,2.0498638E-1,5.3513076E-2,-1.7574473E-1,1.1993877E0,-6.4707315E-1,5.5860203E-2,-4.233321E-2,-1.0231047E0,-4.5901924E-1,4.357913E-2,-3.758231E-3,1.45312E-1,1.140195E0,5.66111E-2,-8.5950917E-1,3.794545E-2,-1.0612814E0,6.373357E-2,9.952473E-4,-2.9304132E-2,3.43578E-2,-5.9482433E-2,1.7292393E-2,5.663075E-2,-3.0309875E-2,6.208492E-2,-6.330795E-3,2.6739264E-2,-5.7483863E-2,-9.62258E-3,3.2723717E-2,7.345085E-3,-3.5940316E-2,-5.439004E-2,1.3422198E-2,-2.7311055E-2,4.3959077E-2,-5.870086E-3,-7.3704466E-2,-8.343717E-3,-7.313763E-2,2.9426476E-2,-4.88436E-2,3.2838617E-2,-5.78937E-2,5.003491E-2,-2.5653917E-2,6.451278E-2,-1.22522535E-2,3.231218E-2,-2.0434642E-2,1.9208942E-2,-6.1817225E-2],"split_indices":[5,12,12,5,54,54,54,9,40,14,5,24,1,52,16,0,0,3,14,26,21,15,9,7,29,40,52,36,27,13,24,5,38,0,24,0,0,0,33,2,8,12,22,0,31,37,33,0,0,39,1,0,54,54,22,0,6,0,22,0,0,0,0,0,0,0,0,0,0,0,0,0,0,0,0,0,0,0,0,0,0,0,0,0,0,0,0,0,0,0,0,0,0,0,0],"split_type":[0,0,0,0,0,0,0,0,0,0,0,0,0,0,0,0,0,0,0,0,0,0,0,0,0,0,0,0,0,0,0,0,0,0,0,0,0,0,0,0,0,0,0,0,0,0,0,0,0,0,0,0,0,0,0,0,0,0,0,0,0,0,0,0,0,0,0,0,0,0,0,0,0,0,0,0,0,0,0,0,0,0,0,0,0,0,0,0,0,0,0,0,0,0,0],"sum_hessian":[3.9153964E2,2.1450847E2,1.7703117E2,6.2901493E1,1.5160698E2,9.615331E1,8.087787E1,5.594742E0,5.730675E1,2.8110348E1,1.2349663E2,5.378938E1,4.2363934E1,3.0891497E1,4.998637E1,3.6454387E0,1.9493034E0,3.704672E1,2.0260035E1,3.393771E0,2.4716576E1,3.2017963E1,9.147866E1,9.476616E0,4.4312767E1,3.8704882E0,3.8493443E1,8.2687845E0,2.2622713E1,2.921208E1,2.077429E1,1.702072E1,2.0025997E1,1.2371998E0,1.9022835E1,1.922431E0,1.47134E0,1.9892273E1,4.8243036E0,2.6888454E1,5.1295085E0,6.1150623E1,3.0328043E1,2.9128034E0,6.5638123E0,3.0675453E1,1.3637313E1,1.9332652E0,1.9372228E0,3.1460814E1,7.0326304E0,1.9486636E0,6.320121E0,6.5775385E0,1.6045174E1,3.169859E0,2.6042221E1,1.6923579E0,1.9081934E1,4.616875E0,1.2403844E1,1.783265E1,2.193348E0,1.7551346E1,1.4714906E0,3.6043618E0,1.219942E0,2.468911E1,2.1993437E0,3.402403E0,1.7271053E0,1.0915016E1,5.0235607E1,1.9137691E1,1.119035E1,2.9220424E0,3.64177E0,2.8731705E1,1.943747E0,2.673487E0,1.0963826E1,1.7050261E0,2.9755787E1,1.2224889E0,5.8101416E0,1.4571959E0,4.862925E0,1.4481415E0,5.129397E0,1.4819719E1,1.2254548E0,4.615592E0,2.1426628E1,2.6825414E0,1.6399391E1],"tree_param":{"num_deleted":"0","num_feature":"56","num_nodes":"95","size_leaf_vector":"1"}},{"base_weights":[-5.1341817E-4,-1.3198311E0,9.317586E-1,-3.4427443E-1,-1.5033076E0,3.0116123E-1,1.4642683E0,-1.3231812E0,4.8506922E-1,-1.6093786E0,-7.1726525E-1,1.0012453E0,-1.0045298E0,1.5070404E0,3.6517674E-1,-7.983234E-2,3.1952508E-2,-8.1467706E-1,1.2861816E0,-1.6226472E0,-2.2160491E-2,-1.451053E0,7.531289E-1,-3.8357016E-1,1.4607105E0,-1.3284584E0,6.811905E-1,4.413102E-1,1.5448228E0,-4.499429E-2,5.5311706E-2,-6.921682E-2,2.2844259E-2,4.7555357E-1,7.469793E-2,-2.4110204E-2,-1.6304151E0,-8.0150515E-3,-7.90038E-2,-3.564211E-2,6.1156847E-2,1.2279222E0,-1.2185199E0,6.150438E-1,1.5493675E0,-7.939674E-2,-6.434588E-1,-1.8914038E-2,6.0486227E-2,6.2241107E-2,-3.1573497E-2,1.3809623E-2,1.5589867E0,-1.2444785E-2,4.933931E-2,-8.188534E-2,-2.5906071E-2,7.209604E-2,7.639849E-3,-7.9584725E-2,-1.029988E-2,6.473027E-2,-2.4752727E-2,3.0421186E-2,8.102109E-2,-6.043458E-2,4.1073788E-2,4.613344E-2,7.9178624E-2],"categories":[],"categories_nodes":[],"categories_segments":[],"categories_sizes":[],"default_left":[0,0,0,0,0,0,0,0,0,0,0,0,0,0,0,0,0,0,0,0,0,0,0,0,0,0,0,0,0,0,0,0,0,0,0,0,0,0,0,0,0,0,0,0,0,0,0,0,0,0,0,0,0,0,0,0,0,0,0,0,0,0,0,0,0,0,0,0,0],"id":6,"left_children":[1,3,5,7,9,11,13,15,17,19,21,23,25,27,29,-1,-1,31,33,35,-1,37,39,41,43,45,47,49,51,-1,-1,-1,-1,53,-1,-1,55,-1,-1,-1,-1,57,59,61,63,-1,65,-1,-1,-1,-1,-1,67,-1,-1,-1,-1,-1,-1,-1,-1,-1,-1,-1,-1,-1,-1,-1,-1],"loss_changes":[4.765031E2,2.8194214E1,7.578696E1,2.2310001E1,1.0077972E1,9.715859E1,5.2232666E0,7.7329197E0,1.6854362E1,1.1051025E0,2.032182E1,4.4447594E1,2.1225658E1,4.0654297E0,6.545615E0,0E0,0E0,5.2690372E0,9.3670845E-1,2.4313354E-1,0E0,1.7835369E0,5.4134493E0,2.5683035E1,2.9457016E0,4.586746E0,4.1866636E0,5.4722347E0,1.6080933E0,0E0,0E0,0E0,0E0,1.5278735E0,0E0,0E0,8.407593E-2,0E0,0E0,0E0,0E0,1.305789E0,4.335804E0,5.6141243E0,2.1167908E0,0E0,9.563213E0,0E0,0E0,0E0,0E0,0E0,2.9092407E-1,0E0,0E0,0E0,0E0,0E0,0E0,0E0,0E0,0E0,0E0,0E0,0E0,0E0,0E0,0E0,0E0],"parents":[2147483647,0,0,1,1,2,2,3,3,4,4,5,5,6,6,7,7,8,8,9,9,10,10,11,11,12,12,13,13,14,14,17,17,18,18,19,19,21,21,22,22,23,23,24,24,25,25,26,26,27,27,28,28,33,33,36,36,41,41,42,42,43,43,44,44,46,46,52,52],"right_children":[2,4,6,8,10,12,14,16,18,20,22,24,26,28,30,-1,-1,32,34,36,-1,38,40,42,44,46,48,50,52,-1,-1,-1,-1,54,-1,-1,56,-1,-1,-1,-1,58,60,62,64,-1,66,-1,-1,-1,-1,-1,68,-1,-1,-1,-1,-1,-1,-1,-1,-1,-1,-1,-1,-1,-1,-1,-1],"split_conditions":[-1.6633825E-1,-8.061233E-1,3.3707744E-1,-6.3288486E-1,8.0867016E-1,2.7070355E-1,1.129916E0,7.044001E-1,-4.8741627E-1,1.5025263E0,-4.3411312E-1,-4.6506065E-1,7.71577E-1,-1.4331037E0,6.4619863E-1,-7.983234E-2,3.1952508E-2,-3.0556586E-1,-1.8257952E-1,-1.6230663E0,-2.2160491E-2,-7.714244E-1,4.0554106E-1,-5.9391266E-1,-1.17603615E-1,1.8350819E-1,-2.506804E-1,-3.2663736E-1,-1.6334032E0,-4.499429E-2,5.5311706E-2,-6.921682E-2,2.2844259E-2,7.5173173E-3,7.469793E-2,-2.4110204E-2,1.8062283E0,-8.0150515E-3,-7.90038E-2,-3.564211E-2,6.1156847E-2,8.097145E-1,1.3734438E-1,-3.4046096E-1,-1.1698047E0,-7.939674E-2,4.1022536E-1,-1.8914038E-2,6.0486227E-2,6.2241107E-2,-3.1573497E-2,1.3809623E-2,3.6601308E-1,-1.2444785E-2,4.933931E-2,-8.188534E-2,-2.5906071E-2,7.209604E-2,7.639849E-3,-7.9584725E-2,-1.029988E-2,6.473027E-2,-2.4752727E-2,3.0421186E-2,8.102109E-2,-6.043458E-2,4.1073788E-2,4.613344E-2,7.9178624E-2],"split_indices":[0,5,0,0,12,5,5,12,12,23,0,12,12,12,0,0,0,0,12,11,0,6,52,5,0,0,21,11,30,0,0,0,0,7,0,0,11,0,0,0,0,6,0,5,8,0,12,0,0,0,0,0,0,0,0,0,0,0,0,0,0,0,0,0,0,0,0,0,0],"split_type":[0,0,0,0,0,0,0,0,0,0,0,0,0,0,0,0,0,0,0,0,0,0,0,0,0,0,0,0,0,0,0,0,0,0,0,0,0,0,0,0,0,0,0,0,0,0,0,0,0,0,0,0,0,0,0,0,0,0,0,0,0,0,0,0,0,0,0,0,0],"sum_hessian":[3.8541272E2,1.5940823E2,2.260045E2,2.5689863E1,1.3371837E2,1.0418926E2,1.2181524E2,1.1509406E1,1.4180457E1,1.1689654E2,1.6821827E1,6.797543E1,3.6213825E1,1.16895E2,4.9202404E0,1.0265121E1,1.2442844E0,5.400923E0,8.779535E0,1.1519443E2,1.702111E0,1.1230496E1,5.591331E0,1.6975859E1,5.0999577E1,3.0554413E1,5.6594124E0,4.4364414E0,1.1245856E2,1.7383566E0,3.1818838E0,3.6686707E0,1.7322519E0,2.4621983E0,6.3173366E0,1.2060384E0,1.1398839E2,1.224361E0,1.0006136E1,1.232005E0,4.359326E0,5.633085E0,1.1342773E1,5.592463E0,4.5407112E1,2.1204168E1,9.3502445E0,1.9782335E0,3.6811788E0,2.4448667E0,1.9915748E0,1.4680456E0,1.1099051E2,1.2309747E0,1.2312238E0,1.1277671E2,1.2116779E0,4.4134436E0,1.2196412E0,7.8701477E0,3.4726253E0,3.3658223E0,2.2266407E0,3.859537E0,4.1547577E1,6.8731966E0,2.4770482E0,5.5621524E0,1.0542836E2],"tree_param":{"num_deleted":"0","num_feature":"56","num_nodes":"69","size_leaf_vector":"1"}},{"base_weights":[-1.2360137E-2,-9.7853434E-1,1.208422E0,-1.4228934E0,-2.0195709E-1,1.4360723E0,5.3319615E-1,5.5643487E-1,-1.4743315E0,1.1462065E0,-8.1655276E-1,6.187133E-1,1.5216993E0,-9.300907E-1,1.246169E0,5.8851253E-2,-2.6347382E-2,-1.0279722E0,-1.5759218E0,-2.4836054E-2,1.2874689E0,-1.1553631E0,1.1717285E0,-3.5839158E-1,6.795218E-2,8.2411116E-1,1.5815923E0,-7.702284E-2,4.4123083E-1,1.4297292E0,3.7927958E-1,-1.4313452E0,5.000345E-3,-8.071004E-2,-1.0140569E0,5.113794E-2,1.445026E0,-6.6484773E-1,-1.5850486E0,4.7688964E-3,6.6979475E-2,4.4431534E-1,-5.577561E-2,-3.2104707E-1,6.636209E-2,2.5141446E-2,7.9460435E-2,-4.188114E-2,6.352046E-2,1.4997233E0,2.1661648E-3,5.608508E-2,-6.1920375E-1,-7.8507885E-2,-3.4453645E-2,-6.640662E-2,5.503319E-2,-7.205347E-2,2.4872383E-3,5.0479837E-2,-5.1075548E-2,6.085332E-3,7.607595E-2,-6.545047E-2,4.472736E-2,-2.5910273E-2,-8.086602E-2,-2.9240469E-2,5.6363117E-2,-5.865891E-2,4.7902834E-2,7.853446E-2,5.570428E-3,8.5558845E-3,-5.6469362E-2],"categories":[],"categories_nodes":[],"categories_segments":[],"categories_sizes":[],"default_left":[0,0,0,0,0,0,0,0,0,0,0,0,0,0,0,0,0,0,0,0,0,0,0,0,0,0,0,0,0,0,0,0,0,0,0,0,0,0,0,0,0,0,0,0,0,0,0,0,0,0,0,0,0,0,0,0,0,0,0,0,0,0,0,0,0,0,0,0,0,0,0,0,0,0,0],"id":7,"left_children":[1,3,5,7,9,11,13,15,17,19,21,23,25,27,29,-1,-1,31,33,-1,35,37,39,41,-1,43,45,-1,47,49,51,53,55,-1,57,59,61,63,65,-1,-1,67,-1,69,-1,-1,-1,-1,-1,71,-1,-1,73,-1,-1,-1,-1,-1,-1,-1,-1,-1,-1,-1,-1,-1,-1,-1,-1,-1,-1,-1,-1,-1,-1],"loss_changes":[4.520376E2,7.3534225E1,2.5261414E1,1.4657043E1,6.641317E1,7.879608E0,4.7358494E1,3.4227574E0,4.398926E0,6.4788933E0,3.83124E1,1.0351692E1,3.4345398E0,1.330199E1,4.263748E0,0E0,0E0,1.145945E1,6.482544E-1,0E0,4.4934006E0,8.932121E0,1.4051409E0,4.549134E0,0E0,6.7952447E0,4.9987793E-2,0E0,6.813719E0,2.3186913E0,5.6158614E0,9.550667E-1,1.4191858E1,0E0,4.3719425E0,4.8218784E0,1.9162407E0,2.5124329E1,6.538391E-3,0E0,0E0,3.437233E0,0E0,5.6794863E0,0E0,0E0,0E0,0E0,0E0,2.1258545E0,0E0,0E0,1.5946016E0,0E0,0E0,0E0,0E0,0E0,0E0,0E0,0E0,0E0,0E0,0E0,0E0,0E0,0E0,0E0,0E0,0E0,0E0,0E0,0E0,0E0,0E0],"parents":[2147483647,0,0,1,1,2,2,3,3,4,4,5,5,6,6,7,7,8,8,9,9,10,10,11,11,12,12,13,13,14,14,17,17,18,18,20,20,21,21,22,22,23,23,25,25,26,26,28,28,29,29,30,30,31,31,32,32,34,34,35,35,36,36,37,37,38,38,41,41,43,43,49,49,52,52],"right_children":[2,4,6,8,10,12,14,16,18,20,22,24,26,28,30,-1,-1,32,34,-1,36,38,40,42,-1,44,46,-1,48,50,52,54,56,-1,58,60,62,64,66,-1,-1,68,-1,70,-1,-1,-1,-1,-1,72,-1,-1,74,-1,-1,-1,-1,-1,-1,-1,-1,-1,-1,-1,-1,-1,-1,-1,-1,-1,-1,-1,-1,-1,-1],"split_conditions":[1.0034186E-1,-2.540892E-1,4.8794094E-1,-1.3009944E0,-4.1273245E-1,-9.4446987E-1,3.6601308E-1,-2.0735432E-1,-5.9391266E-1,-1.1203746E0,9.973818E-1,6.057659E-1,1.6293558E-1,3.9516732E-1,1.129916E0,5.8851253E-2,-2.6347382E-2,-5.101839E-1,1.0424671E0,-2.4836054E-2,-1.0890175E0,2.7070355E-1,-8.583743E-1,-1.1349923E-1,6.795218E-2,-3.7110674E-1,-5.548235E-1,-7.702284E-2,2.550034E-1,1.3640906E0,8.578916E-1,4.362253E-1,-3.5773107E-1,-8.071004E-2,-4.7744268E-1,-8.263158E-1,-1.1461052E0,5.259858E-2,-7.84791E-1,4.7688964E-3,6.6979475E-2,-1.4867849E0,-5.577561E-2,1.4598593E-1,6.636209E-2,2.5141446E-2,7.9460435E-2,-4.188114E-2,6.352046E-2,1.2802408E0,2.1661648E-3,5.608508E-2,1.7718643E-1,-7.8507885E-2,-3.4453645E-2,-6.640662E-2,5.503319E-2,-7.205347E-2,2.4872383E-3,5.0479837E-2,-5.1075548E-2,6.085332E-3,7.607595E-2,-6.545047E-2,4.472736E-2,-2.5910273E-2,-8.086602E-2,-2.9240469E-2,5.6363117E-2,-5.865891E-2,4.7902834E-2,7.853446E-2,5.570428E-3,8.5558845E-3,-5.6469362E-2],"split_indices":[0,0,5,5,5,12,0,30,5,12,12,0,0,12,5,0,0,0,12,0,23,5,26,5,0,12,46,0,0,26,55,12,12,0,0,5,28,12,6,0,0,12,0,37,0,0,0,0,0,9,0,0,19,0,0,0,0,0,0,0,0,0,0,0,0,0,0,0,0,0,0,0,0,0,0],"split_type":[0,0,0,0,0,0,0,0,0,0,0,0,0,0,0,0,0,0,0,0,0,0,0,0,0,0,0,0,0,0,0,0,0,0,0,0,0,0,0,0,0,0,0,0,0,0,0,0,0,0,0,0,0,0,0,0,0,0,0,0,0,0,0,0,0,0,0,0,0,0,0,0,0,0,0],"sum_hessian":[3.8124646E2,2.1292657E2,1.683199E2,1.3490271E2,7.802386E1,1.2503717E2,4.3282722E1,3.1683393E0,1.3173438E2,2.4160637E1,5.386322E1,1.263684E1,1.1240033E2,1.4080254E1,2.920247E1,1.9594682E0,1.2088709E0,2.6485073E1,1.052493E2,1.7136811E0,2.2446957E1,4.6378986E1,7.4842343E0,5.6697183E0,6.9671216E0,1.0054381E1,1.0234595E2,9.658142E0,4.4221115E0,2.3563692E1,5.6387777E0,1.8769842E1,7.715231E0,9.678272E1,8.46658E0,2.6869967E0,1.975996E1,2.2845999E1,2.3532988E1,1.2212951E0,6.2629395E0,2.952548E0,2.7171702E0,3.1795096E0,6.8748717E0,1.1873734E0,1.0115858E2,1.7353982E0,2.6867132E0,2.2353422E1,1.2102698E0,3.1633008E0,2.475477E0,1.4873086E1,3.8967552E0,3.3847334E0,4.3304977E0,5.7884445E0,2.678136E0,1.4500738E0,1.2369229E0,1.2213748E0,1.8538584E1,1.62811E1,6.5649004E0,1.191803E0,2.2341185E1,1.2350953E0,1.7174528E0,1.9579484E0,1.2215611E0,2.1141384E1,1.2120384E0,1.2318395E0,1.2436373E0],"tree_param":{"num_deleted":"0","num_feature":"56","num_nodes":"75","size_leaf_vector":"1"}},{"base_weights":[-3.3090606E-2,-9.158411E-1,1.1324053E0,-1.3453213E0,-1.4178601E-1,1.2815472E0,1.6180241E-1,5.030641E-1,-1.4097397E0,9.008201E-1,-9.5060295E-1,7.0307994E-1,1.4592278E0,-1.1938275E0,8.70562E-1,-3.262518E-2,5.4778732E-2,-8.207744E-1,-1.500049E0,-3.0939741E-2,1.460945E0,-1.3358102E0,1.1897624E0,-3.4530538E-1,1.2131863E0,3.4116927E-1,1.4861652E0,-7.212715E-2,6.3471086E-3,2.9998508E-1,6.983052E-2,-1.1964782E0,4.2828462E-1,-7.804121E-2,-9.1950303E-1,6.288628E-2,-9.6832407E-1,2.2562607E-3,7.7117234E-2,-8.437748E-1,-7.8257404E-2,6.983475E-2,4.4308584E-3,6.9250727E-1,-6.69327E-2,1.3687283E0,3.642172E-1,-2.8611867E-2,4.8838586E-2,1.5088235E0,5.6120807E-1,-6.292205E-2,7.9636776E-1,-7.0385665E-2,3.7552097E-3,-5.1642504E-2,6.2288977E-2,-6.290945E-2,2.0873772E-2,-5.8640845E-2,8.2220224E-4,-7.2033666E-2,3.5628412E-2,-2.4420789E-2,6.0295768E-2,1.8072462E-2,7.371208E-2,-3.3924058E-2,5.530652E-2,7.6898806E-2,4.5659136E-2,5.156022E-2,-1.5167944E-2,5.9122898E-2,-8.684172E-3],"categories":[],"categories_nodes":[],"categories_segments":[],"categories_sizes":[],"default_left":[0,0,0,0,0,0,0,0,0,0,0,0,0,0,0,0,0,0,0,0,0,0,0,0,0,0,0,0,0,0,0,0,0,0,0,0,0,0,0,0,0,0,0,0,0,0,0,0,0,0,0,0,0,0,0,0,0,0,0,0,0,0,0,0,0,0,0,0,0,0,0,0,0,0,0],"id":8,"left_children":[1,3,5,7,9,11,13,15,17,19,21,23,25,27,29,-1,-1,31,33,35,37,39,41,43,45,47,49,-1,-1,51,-1,53,55,-1,57,-1,59,-1,-1,61,-1,-1,-1,63,-1,65,67,-1,-1,69,71,-1,73,-1,-1,-1,-1,-1,-1,-1,-1,-1,-1,-1,-1,-1,-1,-1,-1,-1,-1,-1,-1,-1,-1],"loss_changes":[3.8611276E2,7.079428E1,2.3207764E1,1.7047058E1,6.605389E1,1.33702545E1,2.2839226E1,4.383389E0,5.8351746E0,1.7940815E1,3.7887424E1,1.9052269E1,2.6921387E0,2.880539E0,4.2266397E0,0E0,0E0,9.83751E0,2.5864258E0,1.7952055E1,2.400856E0,2.9427185E0,1.5268145E0,1.3486246E1,2.6257744E0,2.7633328E0,1.3208466E0,0E0,0E0,7.730815E0,0E0,4.27977E0,7.654827E0,0E0,6.518461E0,0E0,1.7480316E0,0E0,0E0,1.4200535E1,0E0,0E0,0E0,4.600869E0,0E0,1.5538368E0,4.6386786E0,0E0,0E0,3.3822632E-1,1.964708E0,0E0,2.9054604E0,0E0,0E0,0E0,0E0,0E0,0E0,0E0,0E0,0E0,0E0,0E0,0E0,0E0,0E0,0E0,0E0,0E0,0E0,0E0,0E0,0E0,0E0],"parents":[2147483647,0,0,1,1,2,2,3,3,4,4,5,5,6,6,7,7,8,8,9,9,10,10,11,11,12,12,13,13,14,14,17,17,18,18,19,19,20,20,21,21,22,22,23,23,24,24,25,25,26,26,29,29,31,31,32,32,34,34,36,36,39,39,43,43,45,45,46,46,49,49,50,50,52,52],"right_children":[2,4,6,8,10,12,14,16,18,20,22,24,26,28,30,-1,-1,32,34,36,38,40,42,44,46,48,50,-1,-1,52,-1,54,56,-1,58,-1,60,-1,-1,62,-1,-1,-1,64,-1,66,68,-1,-1,70,72,-1,74,-1,-1,-1,-1,-1,-1,-1,-1,-1,-1,-1,-1,-1,-1,-1,-1,-1,-1,-1,-1,-1,-1],"split_conditions":[1.0034186E-1,-2.540892E-1,8.50615E-1,-1.3009944E0,-2.1452679E-1,-4.8741627E-1,3.7095535E-1,-6.181807E-1,-7.69585E-1,-3.5773107E-1,9.973818E-1,3.7095535E-1,-1.4679165E0,5.434015E-1,6.815042E-1,-3.262518E-2,5.4778732E-2,4.206479E-1,9.2419904E-1,-7.8816044E-1,-1.2117107E0,2.7070355E-1,4.626564E-1,-7.63275E-2,5.195429E-1,1.8350819E-1,1.3814225E0,-7.212715E-2,6.3471086E-3,-1.338139E-1,6.983052E-2,-3.661945E-1,-6.8882203E-1,-7.804121E-2,-4.1989073E-1,6.288628E-2,9.216832E-1,2.2562607E-3,7.7117234E-2,1.1813085E-1,-7.8257404E-2,6.983475E-2,4.4308584E-3,-3.0013636E-1,-6.69327E-2,-1.6637086E0,8.309098E-1,-2.8611867E-2,4.8838586E-2,7.008548E-1,-3.3687153E-1,-6.292205E-2,2.3638847E-1,-7.0385665E-2,3.7552097E-3,-5.1642504E-2,6.2288977E-2,-6.290945E-2,2.0873772E-2,-5.8640845E-2,8.2220224E-4,-7.2033666E-2,3.5628412E-2,-2.4420789E-2,6.0295768E-2,1.8072462E-2,7.371208E-2,-3.3924058E-2,5.530652E-2,7.6898806E-2,4.5659136E-2,5.156022E-2,-1.5167944E-2,5.9122898E-2,-8.684172E-3],"split_indices":[0,0,5,5,5,12,0,12,5,12,12,0,4,12,0,0,0,12,12,5,13,5,26,5,28,0,32,0,0,12,0,0,0,0,0,0,36,0,0,12,0,0,0,31,0,12,48,0,0,5,1,0,6,0,0,0,0,0,0,0,0,0,0,0,0,0,0,0,0,0,0,0,0,0,0],"split_type":[0,0,0,0,0,0,0,0,0,0,0,0,0,0,0,0,0,0,0,0,0,0,0,0,0,0,0,0,0,0,0,0,0,0,0,0,0,0,0,0,0,0,0,0,0,0,0,0,0,0,0,0,0,0,0,0,0,0,0,0,0,0,0,0,0,0,0,0,0,0,0,0,0,0,0],"sum_hessian":[3.732806E2,2.125265E2,1.6075409E2,1.3621202E2,7.631449E1,1.3906511E2,2.1688976E1,4.3579636E0,1.3185405E2,3.328923E1,4.302526E1,3.38425E1,1.0522262E2,7.211431E0,1.4477546E1,1.442811E0,2.9151525E0,1.8871185E1,1.12982864E2,1.285308E1,2.0436152E1,3.6781494E1,6.2437663E0,1.1182654E1,2.2659843E1,2.7969797E0,1.0242564E2,5.9910517E0,1.2203794E0,7.6980925E0,6.7794533E0,1.4539847E1,4.331338E0,1.0074746E2,1.2235409E1,5.2684965E0,7.5845833E0,1.1955626E0,1.924059E1,1.3181118E1,2.3600374E1,5.0300856E0,1.2136807E0,5.617041E0,5.5656137E0,1.863369E1,4.026154E0,1.1885872E0,1.6083925E0,9.93604E1,3.0652397E0,1.4887719E0,6.2093205E0,1.2376765E1,2.1630821E0,1.459426E0,2.8719118E0,9.809404E0,2.426005E0,6.122296E0,1.4622879E0,9.58091E0,3.600209E0,1.7167993E0,3.9002419E0,2.1864514E0,1.6447237E1,1.7093292E0,2.3168247E0,9.321606E1,6.144344E0,1.8608841E0,1.2043556E0,4.284916E0,1.9244044E0],"tree_param":{"num_deleted":"0","num_feature":"56","num_nodes":"75","size_leaf_vector":"1"}},{"base_weights":[1.207674E-3,-1.0169654E0,9.880119E-1,1.5035526E-1,-1.2493215E0,4.560327E-1,1.4027442E0,-1.2417542E0,9.1558045E-1,-1.3791353E0,-2.1773805E-1,1.2532164E0,-5.032289E-1,1.44548E0,2.9731342E-1,-7.24122E-2,1.281391E-2,-7.514887E-1,1.2826923E0,-7.540073E-2,-9.751433E-1,-6.6811316E-2,7.6204824E-1,-5.1849492E-2,1.3527818E0,-1.0178053E0,5.4239047E-1,4.3732283E-1,1.473762E0,-4.0227997E-1,5.410694E-2,-5.8107477E-2,9.344207E-3,1.3662541E0,4.1393386E-3,-3.6791973E-2,-1.387498E0,6.450387E-2,-3.924041E-2,7.8227365E-1,7.468968E-2,-7.422386E-2,-4.3788415E-1,9.435137E-1,-5.1072467E-2,5.627347E-2,-3.3174045E-2,2.1939153E-2,1.4819566E0,6.1492235E-3,-3.70779E-2,7.2789535E-2,1.3097665E-2,-7.217188E-2,6.2746786E-2,-7.226689E-2,-6.232097E-3,6.200236E-2,-1.7492482E-2,2.851626E-2,-5.786478E-2,5.837338E-2,-9.815544E-3,7.4521735E-2,2.5805945E-2],"categories":[],"categories_nodes":[],"categories_segments":[],"categories_sizes":[],"default_left":[0,0,0,0,0,0,0,0,0,0,0,0,0,0,0,0,0,0,0,0,0,0,0,0,0,0,0,0,0,0,0,0,0,0,0,0,0,0,0,0,0,0,0,0,0,0,0,0,0,0,0,0,0,0,0,0,0,0,0,0,0,0,0,0,0],"id":9,"left_children":[1,3,5,7,9,11,13,15,17,19,21,23,25,27,29,-1,-1,31,33,-1,35,-1,37,-1,39,41,43,45,47,49,-1,-1,-1,51,-1,53,55,-1,-1,57,-1,-1,59,61,-1,-1,-1,-1,63,-1,-1,-1,-1,-1,-1,-1,-1,-1,-1,-1,-1,-1,-1,-1,-1],"loss_changes":[3.6817868E2,4.9106323E1,4.041655E1,3.3982414E1,1.9856766E1,6.410309E1,4.4873505E0,3.8854542E0,1.3492657E1,5.48085E0,2.0757212E1,1.18046875E1,2.1205166E1,2.2053986E0,3.2536852E0,0E0,0E0,1.8838923E0,1.6061172E0,0E0,1.3538296E1,0E0,9.374815E0,0E0,2.383278E0,6.406105E0,9.314478E0,3.8899713E0,1.7074585E-1,7.0476234E-1,0E0,0E0,0E0,1.1972694E0,0E0,2.3159662E1,1.6000214E0,0E0,0E0,6.05658E0,0E0,0E0,1.0121154E1,3.066393E0,0E0,0E0,0E0,0E0,1.3763428E-2,0E0,0E0,0E0,0E0,0E0,0E0,0E0,0E0,0E0,0E0,0E0,0E0,0E0,0E0,0E0,0E0],"parents":[2147483647,0,0,1,1,2,2,3,3,4,4,5,5,6,6,7,7,8,8,9,9,10,10,11,11,12,12,13,13,14,14,17,17,18,18,20,20,22,22,24,24,25,25,26,26,27,27,28,28,29,29,33,33,35,35,36,36,39,39,42,42,43,43,48,48],"right_children":[2,4,6,8,10,12,14,16,18,20,22,24,26,28,30,-1,-1,32,34,-1,36,-1,38,-1,40,42,44,46,48,50,-1,-1,-1,52,-1,54,56,-1,-1,58,-1,-1,60,62,-1,-1,-1,-1,64,-1,-1,-1,-1,-1,-1,-1,-1,-1,-1,-1,-1,-1,-1,-1,-1],"split_conditions":[-1.5472238E-2,-7.8816044E-1,3.8354927E-1,-6.3288486E-1,9.1461885E-1,9.250456E-2,1.129916E0,3.9516732E-1,-7.6184595E-1,-2.4915144E-1,-4.1989073E-1,-1.4331037E0,2.6379883E-1,-1.6637086E0,2.4739219E-1,-7.24122E-2,1.281391E-2,6.223482E-1,1.3319243E0,-7.540073E-2,-2.1938665E-1,-6.6811316E-2,4.785512E-1,-5.1849492E-2,-4.3549323E-1,2.0400757E-1,1.0120147E0,-2.5830027E-1,-1.6334032E0,6.210181E-2,5.410694E-2,-5.8107477E-2,9.344207E-3,7.873654E-1,4.1393386E-3,-2.884423E-1,1.1489055E0,6.450387E-2,-3.924041E-2,-2.561989E-1,7.468968E-2,-7.422386E-2,4.330686E-1,7.149493E-1,-5.1072467E-2,5.627347E-2,-3.3174045E-2,2.1939153E-2,1.9077132E0,6.1492235E-3,-3.70779E-2,7.2789535E-2,1.3097665E-2,-7.217188E-2,6.2746786E-2,-7.226689E-2,-6.232097E-3,6.200236E-2,-1.7492482E-2,2.851626E-2,-5.786478E-2,5.837338E-2,-9.815544E-3,7.4521735E-2,2.5805945E-2],"split_indices":[0,5,0,0,12,5,5,12,12,0,0,12,12,12,12,0,0,22,33,0,5,0,5,0,12,0,5,43,30,28,0,0,0,39,0,12,36,0,0,5,0,0,5,18,0,0,0,0,1,0,0,0,0,0,0,0,0,0,0,0,0,0,0,0,0],"split_type":[0,0,0,0,0,0,0,0,0,0,0,0,0,0,0,0,0,0,0,0,0,0,0,0,0,0,0,0,0,0,0,0,0,0,0,0,0,0,0,0,0,0,0,0,0,0,0,0,0,0,0,0,0,0,0,0,0,0,0,0,0,0,0,0,0],"sum_hessian":[3.644426E2,1.7935532E2,1.8508728E2,2.9832811E1,1.495225E2,8.200221E1,1.0308507E2,1.0361067E1,1.9471745E1,1.3251054E2,1.7011965E1,4.461717E1,3.7385044E1,9.895199E1,4.133081E0,9.135113E0,1.2259543E0,3.3251376E0,1.6146606E1,9.838993E1,3.4120613E1,7.77384E0,9.238126E0,1.4666264E0,4.3150543E1,2.507271E1,1.2312333E1,3.1494186E0,9.5802574E1,2.4429038E0,1.6901772E0,2.1470494E0,1.1780883E0,1.4965752E1,1.1808548E0,1.074915E1,2.3371462E1,7.010908E0,2.2272172E0,9.849365E0,3.3301178E1,1.3028599E1,1.2044111E1,1.0114614E1,2.197719E0,1.9241596E0,1.225259E0,1.1810447E0,9.462153E1,1.2088673E0,1.2340364E0,1.3548916E1,1.4168351E0,5.0894604E0,5.6596894E0,2.220974E1,1.1617225E0,6.94559E0,2.9037755E0,5.1016736E0,6.9424376E0,8.433366E0,1.681248E0,9.325974E1,1.361782E0],"tree_param":{"num_deleted":"0","num_feature":"56","num_nodes":"65","size_leaf_vector":"1"}},{"base_weights":[5.025664E-3,-1.1915888E0,8.1523687E-1,-5.146817E-1,-1.3995537E0,5.3351317E-2,1.1627786E0,-7.1052775E-2,2.5579888E-1,-1.4687932E0,-7.388805E-1,9.673358E-1,-7.54627E-1,1.2874161E0,3.5724676E-1,5.72794E-1,-7.1356463E-1,-2.5389304E-2,-7.384765E-2,5.501718E-1,-1.1749616E0,1.2744738E0,3.3451024E-1,-1.4499529E-1,-1.2681861E0,1.4287119E0,1.0122916E0,-5.838145E-1,1.1701937E0,7.2595334E-1,-2.9750315E-2,-5.2291255E-2,1.308866E-2,-5.1392163E-3,4.8753615E-2,-4.4683623E-3,-6.548491E-2,4.108799E-3,1.3707308E0,5.591441E-2,-1.8757375E-1,5.002582E-1,-6.541877E-1,-5.4354533E-3,-1.333759E0,7.18814E-2,2.0766368E-2,5.563992E-1,1.3810165E0,2.6530057E-1,-1.0105174E0,5.8520716E-3,1.3021111E0,-1.5893457E-2,4.5477055E-2,1.155838E-2,7.227116E-2,2.5857512E-2,-4.1967656E-2,6.014648E-2,-5.300419E-3,-3.827023E-3,-5.4727554E-2,-7.034599E-2,-6.4536887E-3,-1.9999417E-2,4.0034052E-2,7.056502E-2,1.9972028E-2,4.2894583E-2,-3.5135273E-2,2.6554633E-3,-6.381764E-2,1.8484803E-2,6.880521E-2],"categories":[],"categories_nodes":[],"categories_segments":[],"categories_sizes":[],"default_left":[0,0,0,0,0,0,0,0,0,0,0,0,0,0,0,0,0,0,0,0,0,0,0,0,0,0,0,0,0,0,0,0,0,0,0,0,0,0,0,0,0,0,0,0,0,0,0,0,0,0,0,0,0,0,0,0,0,0,0,0,0,0,0,0,0,0,0,0,0,0,0,0,0,0,0],"id":10,"left_children":[1,3,5,7,9,11,13,-1,15,17,19,21,23,25,27,29,31,-1,-1,33,35,37,39,41,43,45,47,49,51,53,-1,-1,-1,-1,-1,-1,-1,-1,55,-1,57,59,61,-1,63,-1,-1,65,67,69,71,-1,73,-1,-1,-1,-1,-1,-1,-1,-1,-1,-1,-1,-1,-1,-1,-1,-1,-1,-1,-1,-1,-1,-1],"loss_changes":[3.4971268E2,1.9780518E1,5.6887848E1,2.536987E1,3.9842834E0,5.1259655E1,1.4364471E1,0E0,6.616611E0,2.8686523E-2,7.6870704E0,5.8990917E0,1.1362537E1,3.5095978E0,1.6878078E1,3.2541232E0,2.031421E0,0E0,0E0,1.1675787E0,1.2985134E0,2.3610764E0,5.115971E0,6.2386003E0,1.3671017E0,1.4196777E-1,7.079811E0,4.064661E0,1.4717369E0,3.0485692E0,0E0,0E0,0E0,0E0,0E0,0E0,0E0,0E0,1.358017E0,0E0,4.1328497E0,3.749555E0,2.5844731E0,0E0,1.4696159E0,0E0,0E0,5.5888405E0,1.8348312E-1,3.0675318E0,2.0984583E0,0E0,2.0121002E-1,0E0,0E0,0E0,0E0,0E0,0E0,0E0,0E0,0E0,0E0,0E0,0E0,0E0,0E0,0E0,0E0,0E0,0E0,0E0,0E0,0E0,0E0],"parents":[2147483647,0,0,1,1,2,2,3,3,4,4,5,5,6,6,8,8,9,9,10,10,11,11,12,12,13,13,14,14,15,15,16,16,19,19,20,20,21,21,22,22,23,23,24,24,25,25,26,26,27,27,28,28,29,29,38,38,40,40,41,41,42,42,44,44,47,47,48,48,49,49,50,50,52,52],"right_children":[2,4,6,8,10,12,14,-1,16,18,20,22,24,26,28,30,32,-1,-1,34,36,38,40,42,44,46,48,50,52,54,-1,-1,-1,-1,-1,-1,-1,-1,56,-1,58,60,62,-1,64,-1,-1,66,68,70,72,-1,74,-1,-1,-1,-1,-1,-1,-1,-1,-1,-1,-1,-1,-1,-1,-1,-1,-1,-1,-1,-1,-1,-1],"split_conditions":[-1.8590298E-1,-5.9391266E-1,1.4330012E-1,-6.3288486E-1,-2.540892E-1,-1.03889935E-1,8.50615E-1,-7.1052775E-2,4.050856E-1,-1.5257356E0,-2.1938665E-1,-3.851621E-1,4.481763E-1,1.6117322E-1,5.7197005E-1,8.706309E-1,5.149082E-1,-2.5389304E-2,-7.384765E-2,-7.2431654E-2,-7.3794484E-1,-1.0890175E0,-2.3936841E-1,-1.3453618E-1,-1.3610582E0,2.063998E0,5.304573E-1,-4.466998E-1,-9.440998E-1,-8.4793293E-1,-2.9750315E-2,-5.2291255E-2,1.308866E-2,-5.1392163E-3,4.8753615E-2,-4.4683623E-3,-6.548491E-2,4.108799E-3,-1.1380935E0,5.591441E-2,-9.998299E-2,1.4516517E-2,1.053021E0,-5.4354533E-3,1.3163731E0,7.18814E-2,2.0766368E-2,-6.844929E-1,1.1506952E0,7.649834E-2,-4.43265E-1,5.8520716E-3,-7.121996E-1,-1.5893457E-2,4.5477055E-2,1.155838E-2,7.227116E-2,2.5857512E-2,-4.1967656E-2,6.014648E-2,-5.300419E-3,-3.827023E-3,-5.4727554E-2,-7.034599E-2,-6.4536887E-3,-1.9999417E-2,4.0034052E-2,7.056502E-2,1.9972028E-2,4.2894583E-2,-3.5135273E-2,2.6554633E-3,-6.381764E-2,1.8484803E-2,6.880521E-2],"split_indices":[0,5,0,0,0,5,5,0,19,28,5,5,5,5,0,18,9,0,0,26,19,23,6,6,1,52,0,13,19,14,0,0,0,0,0,0,0,0,11,0,2,2,42,0,31,0,0,4,24,17,9,0,3,0,0,0,0,0,0,0,0,0,0,0,0,0,0,0,0,0,0,0,0,0,0],"split_type":[0,0,0,0,0,0,0,0,0,0,0,0,0,0,0,0,0,0,0,0,0,0,0,0,0,0,0,0,0,0,0,0,0,0,0,0,0,0,0,0,0,0,0,0,0,0,0,0,0,0,0,0,0,0,0,0,0,0,0,0,0,0,0,0,0,0,0,0,0,0,0,0,0,0,0],"sum_hessian":[3.5870862E2,1.4463058E2,2.1407805E2,3.480812E1,1.09822464E2,6.742393E1,1.4665411E2,1.5605654E1,1.9202469E1,9.829756E1,1.15249E1,3.154407E1,3.5879856E1,1.2648522E2,2.0168898E1,1.4778727E1,4.4237423E0,1.3599722E0,9.693759E1,2.8471422E0,8.677758E0,2.055425E1,1.098982E1,1.6991753E1,1.8888103E1,8.0797195E1,4.5688023E1,9.478506E0,1.06903925E1,1.3399689E1,1.3790379E0,3.2457643E0,1.177978E0,1.4212172E0,1.4259251E0,1.141752E0,7.536006E0,1.67391E0,1.888034E1,3.937173E0,7.052646E0,7.5023055E0,9.489448E0,1.1532838E0,1.7734821E1,7.9677536E1,1.1196631E0,2.1551132E1,2.4136889E1,3.2966363E0,6.1818695E0,1.4000928E0,9.290299E0,1.894832E0,1.1504856E1,1.4132746E0,1.7467066E1,3.4879372E0,3.5647092E0,3.0190384E0,4.4832673E0,4.612633E0,4.8768144E0,1.6561184E1,1.1736364E0,4.254996E0,1.7296137E1,2.2989807E1,1.1470811E0,2.1153944E0,1.181242E0,1.3961185E0,4.785751E0,1.1239038E0,8.166395E0],"tree_param":{"num_deleted":"0","num_feature":"56","num_nodes":"75","size_leaf_vector":"1"}},{"base_weights":[-7.512151E-3,-8.3119875E-1,1.0445058E0,-1.2211809E0,-1.7597727E-1,5.203583E-1,1.3235455E0,-4.316854E-1,-1.3664749E0,8.4966654E-1,-8.478175E-1,1.0603983E0,-6.5852827E-1,1.3827466E0,1.0669982E-1,-1.1231232E0,4.4550472E-1,-5.863704E-1,-1.3864505E0,1.2343134E0,4.5102602E-1,-3.3125156E-1,-1.161832E0,-1.4357722E-1,1.175832E0,3.3411045E-2,-8.1115735E-1,1.3990359E0,7.727958E-3,4.252107E-2,-6.4084333E-1,-3.1198394E-3,-1.2340847E0,9.852822E-1,-8.015551E-2,1.7447269E-2,-5.1832803E-2,-2.0740818E-2,-1.3930708E0,6.8949245E-2,1.1421571E-2,8.7410563E-1,3.8274508E-2,1.3470633E-1,-9.007074E-1,-5.359576E-2,-1.268386E0,-5.0996747E-2,3.344476E-2,1.2278367E0,-2.2696676E-3,2.7879608E-1,-1.0138792E0,1.4070411E0,2.3845036E-2,7.7098007E-3,-5.683126E-2,-1.9599227E-2,-6.825604E-2,9.10082E-3,5.917808E-2,-4.727933E-2,1.977664E-2,-1.8964E-2,-7.00339E-2,5.9574187E-2,-1.141339E-2,-2.4052024E-2,3.0394344E-2,-3.7805744E-2,2.5613803E-2,-8.160542E-3,-6.540235E-2,-2.8755981E-2,2.6979176E-2,-6.734802E-2,-8.260989E-3,6.431203E-2,6.0265725E-3,4.877932E-2,-2.782023E-2,-1.9719412E-3,-5.882463E-2,2.5770236E-2,7.081316E-2],"categories":[],"categories_nodes":[],"categories_segments":[],"categories_sizes":[],"default_left":[0,0,0,0,0,0,0,0,0,0,0,0,0,0,0,0,0,0,0,0,0,0,0,0,0,0,0,0,0,0,0,0,0,0,0,0,0,0,0,0,0,0,0,0,0,0,0,0,0,0,0,0,0,0,0,0,0,0,0,0,0,0,0,0,0,0,0,0,0,0,0,0,0,0,0,0,0,0,0,0,0,0,0,0,0],"id":11,"left_children":[1,3,5,7,9,11,13,15,17,19,21,23,25,27,29,31,33,35,37,39,41,43,45,47,49,-1,51,53,-1,-1,55,-1,57,59,61,-1,-1,-1,63,-1,-1,65,67,69,71,73,75,-1,-1,77,-1,79,81,83,-1,-1,-1,-1,-1,-1,-1,-1,-1,-1,-1,-1,-1,-1,-1,-1,-1,-1,-1,-1,-1,-1,-1,-1,-1,-1,-1,-1,-1,-1,-1],"loss_changes":[3.0820978E2,5.0758286E1,2.2156082E1,1.3735565E1,5.2813393E1,3.6294765E1,7.148712E0,1.3160097E1,8.2344055E-1,4.107849E0,7.1057396E0,5.5514145E0,4.2241144E0,1.714386E0,3.759874E0,1.3302374E0,2.8926744E0,2.1957788E0,7.6049805E-2,1.8541832E0,2.85039E0,5.125002E0,3.27639E0,3.7293584E0,2.3071327E0,0E0,3.9856462E0,3.1066895E-2,0E0,0E0,1.5367645E0,0E0,6.5338707E-1,5.757961E-1,2.8229473E0,0E0,0E0,0E0,2.4417114E-1,0E0,0E0,3.1091886E0,3.074493E0,4.1682434E0,2.374957E0,1.4018255E0,2.0132065E0,0E0,0E0,2.0462036E0,0E0,2.5287583E0,2.2268744E0,4.118347E-2,0E0,0E0,0E0,0E0,0E0,0E0,0E0,0E0,0E0,0E0,0E0,0E0,0E0,0E0,0E0,0E0,0E0,0E0,0E0,0E0,0E0,0E0,0E0,0E0,0E0,0E0,0E0,0E0,0E0,0E0,0E0],"parents":[2147483647,0,0,1,1,2,2,3,3,4,4,5,5,6,6,7,7,8,8,9,9,10,10,11,11,12,12,13,13,14,14,15,15,16,16,17,17,18,18,19,19,20,20,21,21,22,22,23,23,24,24,26,26,27,27,30,30,32,32,33,33,34,34,38,38,41,41,42,42,43,43,44,44,45,45,46,46,49,49,51,51,52,52,53,53],"right_children":[2,4,6,8,10,12,14,16,18,20,22,24,26,28,30,32,34,36,38,40,42,44,46,48,50,-1,52,54,-1,-1,56,-1,58,60,62,-1,-1,-1,64,-1,-1,66,68,70,72,74,76,-1,-1,78,-1,80,82,84,-1,-1,-1,-1,-1,-1,-1,-1,-1,-1,-1,-1,-1,-1,-1,-1,-1,-1,-1,-1,-1,-1,-1,-1,-1,-1,-1,-1,-1,-1,-1],"split_conditions":[1.0034186E-1,-2.540892E-1,3.8354927E-1,-7.69585E-1,-2.0590748E-1,4.0062305E-1,1.129916E0,-6.3288486E-1,-1.4291291E0,-6.6074765E-1,2.7070355E-1,-1.0068166E0,2.5853583E-1,1.6476611E0,-2.0735432E-1,-1.5365843E0,-1.459454E-2,-5.520918E-2,-3.0701432E-1,8.505635E-1,-3.223448E-1,-3.8325302E-2,-1.0534016E0,-6.794103E-1,1.1817468E0,3.3411045E-2,-8.047407E-1,1.7772769E0,7.727958E-3,4.252107E-2,-1.906346E-2,-3.1198394E-3,-5.652341E-1,-5.4075396E-1,-4.426848E-1,1.7447269E-2,-5.1832803E-2,-2.0740818E-2,-1.5257356E0,6.8949245E-2,1.1421571E-2,4.7999933E-1,1.4669615E-1,-1.7245847E-1,-1.4545639E-1,-1.39409015E-2,1.2085016E0,-5.0996747E-2,3.344476E-2,2.6121802E0,-2.2696676E-3,-5.9020864E-3,-6.1578465E-1,-1.5114237E0,2.3845036E-2,7.7098007E-3,-5.683126E-2,-1.9599227E-2,-6.825604E-2,9.10082E-3,5.917808E-2,-4.727933E-2,1.977664E-2,-1.8964E-2,-7.00339E-2,5.9574187E-2,-1.141339E-2,-2.4052024E-2,3.0394344E-2,-3.7805744E-2,2.5613803E-2,-8.160542E-3,-6.540235E-2,-2.8755981E-2,2.6979176E-2,-6.734802E-2,-8.260989E-3,6.431203E-2,6.0265725E-3,4.877932E-2,-2.782023E-2,-1.9719412E-3,-5.882463E-2,2.5770236E-2,7.081316E-2],"split_indices":[0,0,0,5,5,5,5,0,24,5,5,37,49,24,30,5,27,25,53,6,31,6,15,27,31,0,11,1,0,0,28,0,24,0,36,0,0,0,28,0,0,14,33,0,24,21,24,0,0,55,0,36,1,27,0,0,0,0,0,0,0,0,0,0,0,0,0,0,0,0,0,0,0,0,0,0,0,0,0,0,0,0,0,0,0],"split_type":[0,0,0,0,0,0,0,0,0,0,0,0,0,0,0,0,0,0,0,0,0,0,0,0,0,0,0,0,0,0,0,0,0,0,0,0,0,0,0,0,0,0,0,0,0,0,0,0,0,0,0,0,0,0,0,0,0,0,0,0,0,0,0,0,0,0,0,0,0,0,0,0,0,0,0,0,0,0,0,0,0,0,0,0,0],"sum_hessian":[3.536796E2,1.984844E2,1.5519519E2,1.2388523E2,7.4599174E1,5.49125E1,1.0028269E2,1.987267E1,1.0401256E2,2.942054E1,4.517863E1,3.7729416E1,1.7183083E1,9.550015E1,4.782546E0,1.0956184E1,8.916485E0,3.3547485E0,1.00657814E2,1.3906196E1,1.5514345E1,1.7857407E1,2.7321226E1,3.2795775E0,3.444984E1,1.4242775E0,1.5758804E1,9.411283E1,1.3873158E0,2.3284137E0,2.4541323E0,1.1855321E0,9.770652E0,3.9677777E0,4.9487076E0,1.1633469E0,2.1914015E0,1.1119922E0,9.954582E1,1.1833339E1,2.0728564E0,7.1093493E0,8.404996E0,1.0241079E1,7.6163273E0,2.528286E0,2.479294E1,1.4549145E0,1.8246629E0,3.3037556E1,1.412284E0,2.4125004E0,1.3346304E1,9.278153E1,1.3313019E0,1.207216E0,1.2469163E0,1.8531098E0,7.917542E0,1.165224E0,2.8025537E0,1.4049039E0,3.5438037E0,1.1201745E0,9.8425644E1,5.457326E0,1.6520232E0,4.477949E0,3.9270468E0,2.7500796E0,7.490999E0,3.208304E0,4.4080234E0,1.361606E0,1.16668E0,2.293815E1,1.8547909E0,3.1228823E1,1.8087318E0,1.2235948E0,1.1889055E0,2.086392E0,1.1259912E1,1.5321517E0,9.124938E1],"tree_param":{"num_deleted":"0","num_feature":"56","num_nodes":"85","size_leaf_vector":"1"}},{"base_weights":[-2.0918507E-2,-8.307207E-1,1.0536051E0,-1.1977234E0,-1.894248E-1,1.228554E0,3.965794E-1,-4.5862538E-1,-1.3384154E0,7.3064953E-1,-8.3478403E-1,2.539445E-2,1.2870911E0,-6.499501E-1,1.0566138E0,-6.617915E-2,2.1800847E-1,-1.4099976E0,-6.9008076E-1,-3.878193E-1,1.2052572E0,-1.245249E0,8.174335E-1,-6.031878E-2,8.334107E-1,8.917791E-1,1.3799288E0,-6.3752286E-2,3.133271E-1,-2.7359228E-3,1.1665993E0,-9.886879E-1,1.0971259E0,-7.09963E-2,-2.7343297E-2,-6.447156E-2,1.5758097E-1,9.087297E-1,-6.933939E-2,-1.1787531E-2,1.2989644E0,-1.310547E0,-2.1727546E-1,1.107066E0,-2.9698044E-2,-3.36187E-4,5.6421913E-2,1.298931E0,4.165419E-2,1.4056735E0,4.5140442E-1,8.6335206E-1,-2.8552322E-2,8.9938653E-4,1.2894756E0,-6.1247613E-2,-2.154562E-4,4.663283E-3,6.2822975E-2,3.681769E-2,-5.0001677E-2,5.786815E-2,3.1434738E-3,6.886526E-2,-3.4633477E-4,-6.7403056E-2,-6.7240368E-3,2.7116174E-2,-4.4068422E-2,6.8017356E-2,9.128389E-3,1.1189994E-2,6.973702E-2,-6.2948555E-2,5.1867343E-2,2.3158E-2,7.1008354E-2,-1.7033238E-2,4.5878228E-2,5.203988E-3,5.6856077E-2,7.488905E-3,6.911416E-2],"categories":[],"categories_nodes":[],"categories_segments":[],"categories_sizes":[],"default_left":[0,0,0,0,0,0,0,0,0,0,0,0,0,0,0,0,0,0,0,0,0,0,0,0,0,0,0,0,0,0,0,0,0,0,0,0,0,0,0,0,0,0,0,0,0,0,0,0,0,0,0,0,0,0,0,0,0,0,0,0,0,0,0,0,0,0,0,0,0,0,0,0,0,0,0,0,0,0,0,0,0,0,0],"id":12,"left_children":[1,3,5,7,9,11,13,15,17,19,21,23,25,27,29,-1,31,33,35,37,39,41,43,-1,45,47,49,-1,51,-1,53,55,57,-1,-1,-1,59,61,-1,-1,63,65,67,69,-1,-1,-1,71,73,75,77,79,-1,-1,81,-1,-1,-1,-1,-1,-1,-1,-1,-1,-1,-1,-1,-1,-1,-1,-1,-1,-1,-1,-1,-1,-1,-1,-1,-1,-1,-1,-1],"loss_changes":[3.0290698E2,4.6489624E1,1.6709915E1,1.2494186E1,4.4214268E1,8.25499E0,2.3437849E1,1.2976789E1,3.9174347E0,1.6821041E1,3.060538E1,7.454539E0,2.8869019E0,8.4428625E0,2.5792236E0,0E0,1.48994875E1,2.8533936E-2,6.521411E0,1.4127718E1,3.2597675E0,2.0876045E0,4.4533243E0,0E0,1.1240366E0,8.309849E0,1.4936981E0,0E0,3.4406114E0,0E0,2.6260433E0,1.3935819E0,1.1636734E0,0E0,0E0,0E0,4.784627E0,9.635396E-1,0E0,0E0,2.1263123E0,1.2760849E0,2.147518E0,1.6374636E0,0E0,0E0,0E0,1.367485E0,1.2777795E1,5.191498E-1,1.7433232E0,7.4100375E-1,0E0,0E0,1.5850163E0,0E0,0E0,0E0,0E0,0E0,0E0,0E0,0E0,0E0,0E0,0E0,0E0,0E0,0E0,0E0,0E0,0E0,0E0,0E0,0E0,0E0,0E0,0E0,0E0,0E0,0E0,0E0,0E0],"parents":[2147483647,0,0,1,1,2,2,3,3,4,4,5,5,6,6,7,7,8,8,9,9,10,10,11,11,12,12,13,13,14,14,16,16,17,17,18,18,19,19,20,20,21,21,22,22,24,24,25,25,26,26,28,28,30,30,31,31,32,32,36,36,37,37,40,40,41,41,42,42,43,43,47,47,48,48,49,49,50,50,51,51,54,54],"right_children":[2,4,6,8,10,12,14,16,18,20,22,24,26,28,30,-1,32,34,36,38,40,42,44,-1,46,48,50,-1,52,-1,54,56,58,-1,-1,-1,60,62,-1,-1,64,66,68,70,-1,-1,-1,72,74,76,78,80,-1,-1,82,-1,-1,-1,-1,-1,-1,-1,-1,-1,-1,-1,-1,-1,-1,-1,-1,-1,-1,-1,-1,-1,-1,-1,-1,-1,-1,-1,-1],"split_conditions":[1.0034186E-1,-2.540892E-1,6.016405E-1,-7.69585E-1,-2.1452679E-1,-1.4331037E0,3.8354927E-1,-3.1855065E-1,8.893812E-1,-5.01382E-1,7.71577E-1,5.304573E-1,-4.9391055E-1,2.6379883E-1,-8.6195266E-1,-6.617915E-2,-6.846215E-1,1.5005977E0,-5.221875E-1,-7.69585E-1,-1.0099595E0,1.1187959E0,8.2349765E-1,-6.031878E-2,-5.428858E-1,6.0655214E-2,1.3814225E0,-6.3752286E-2,-2.179952E-1,-2.7359228E-3,-1.5573737E-1,5.053934E-1,5.453757E-1,-7.09963E-2,-2.7343297E-2,-6.447156E-2,2.4871989E-1,8.509448E-2,-6.933939E-2,-1.1787531E-2,1.2085016E0,1.3465099E0,-3.614864E-1,2.2681251E-1,-2.9698044E-2,-3.36187E-4,5.6421913E-2,-7.628959E-1,3.6601308E-1,-1.5862635E0,-9.7498365E-2,-5.756722E-1,-2.8552322E-2,8.9938653E-4,-1.1981114E0,-6.1247613E-2,-2.154562E-4,4.663283E-3,6.2822975E-2,3.681769E-2,-5.0001677E-2,5.786815E-2,3.1434738E-3,6.886526E-2,-3.4633477E-4,-6.7403056E-2,-6.7240368E-3,2.7116174E-2,-4.4068422E-2,6.8017356E-2,9.128389E-3,1.1189994E-2,6.973702E-2,-6.2948555E-2,5.1867343E-2,2.3158E-2,7.1008354E-2,-1.7033238E-2,4.5878228E-2,5.203988E-3,5.6856077E-2,7.488905E-3,6.911416E-2],"split_indices":[0,0,5,5,5,12,0,12,12,12,12,0,12,12,19,0,0,16,0,5,27,17,5,0,27,5,32,0,30,0,53,3,52,0,0,0,5,9,0,0,24,27,2,34,0,0,0,32,0,4,12,9,0,0,30,0,0,0,0,0,0,0,0,0,0,0,0,0,0,0,0,0,0,0,0,0,0,0,0,0,0,0,0],"split_type":[0,0,0,0,0,0,0,0,0,0,0,0,0,0,0,0,0,0,0,0,0,0,0,0,0,0,0,0,0,0,0,0,0,0,0,0,0,0,0,0,0,0,0,0,0,0,0,0,0,0,0,0,0,0,0,0,0,0,0,0,0,0,0,0,0,0,0,0,0,0,0,0,0,0,0,0,0,0,0,0,0,0,0],"sum_hessian":[3.4610245E2,1.9749187E2,1.4861057E2,1.2505652E2,7.2435356E1,1.1667353E2,3.1937029E1,2.0679676E1,1.0437684E2,2.9807419E1,4.2627934E1,5.47965E0,1.11193886E2,1.23579445E1,1.9579084E1,8.657041E0,1.2022635E1,9.294054E1,1.1436307E1,8.934673E0,2.0872746E1,3.434246E1,8.285475E0,1.9753473E0,3.5043025E0,2.3164213E1,8.802967E1,7.29826E0,5.0596843E0,1.8084418E0,1.7770643E1,5.0147033E0,7.0079317E0,9.124587E1,1.6946627E0,6.3941073E0,5.042199E0,3.9275222E0,5.0071507E0,1.1819024E0,1.9690844E1,3.2032814E1,2.3096442E0,7.053622E0,1.2318532E0,1.1647412E0,2.3395612E0,1.5305833E1,7.8583794E0,8.5154755E1,2.8749208E0,3.1341863E0,1.9254979E0,1.8281384E0,1.5942505E1,3.8469837E0,1.1677196E0,1.1771027E0,5.830829E0,3.6041405E0,1.4380589E0,2.750708E0,1.1768141E0,1.8524845E1,1.1659975E0,3.0900894E1,1.1319199E0,1.1628838E0,1.1467606E0,5.166683E0,1.8869386E0,1.5253146E0,1.3780519E1,3.2927723E0,4.565607E0,1.7887504E0,8.3366E1,1.1648663E0,1.7100544E0,1.1963638E0,1.9378225E0,1.3972937E0,1.4545211E1],"tree_param":{"num_deleted":"0","num_feature":"56","num_nodes":"83","size_leaf_vector":"1"}},{"base_weights":[2.3532998E-2,-1.0321339E0,8.204747E-1,-2.1686366E-1,-1.2126205E0,1.1626647E0,2.1473658E-1,-8.603412E-1,7.7134967E-1,-1.340477E0,-4.7473866E-1,5.499448E-1,1.3555859E0,-6.393067E-1,1.0625169E0,-1.1275553E0,4.3165203E-2,-3.3995476E-2,1.0435171E0,-1.8180273E-2,-1.3474158E0,-1.2458997E0,5.456244E-1,-6.1406845E-1,1.1079227E0,1.7262777E-2,1.3631569E0,-1.1811187E0,3.2620168E-1,1.1327952E-2,1.1781875E0,-6.617203E-2,-4.2342928E-1,6.194517E-2,-5.310115E-3,-1.7839165E-2,-1.3539709E0,-1.5609941E-2,-6.573766E-2,6.1768483E-2,-8.1191874E-1,8.1508374E-1,-6.884273E-2,1.2013599E0,-6.3016624E-3,1.8860113E-2,1.3701383E0,-1.2873725E0,3.8003744E-4,-3.2108855E-1,8.313868E-1,-5.1209945E-2,4.802216E-2,1.2673141E0,-8.60784E-3,-5.2805245E-2,3.2385048E-2,-1.9494645E-2,-6.801554E-2,-8.349001E-3,-5.2574523E-2,5.3621836E-2,1.9230789E-3,-3.148519E-3,6.498701E-2,1.9402547E-2,6.886623E-2,-1.509772E-2,-6.8780586E-2,-5.98589E-2,4.582489E-2,5.7978727E-2,-2.8659005E-2,6.6060945E-2,-4.265159E-3],"categories":[],"categories_nodes":[],"categories_segments":[],"categories_sizes":[],"default_left":[0,0,0,0,0,0,0,0,0,0,0,0,0,0,0,0,0,0,0,0,0,0,0,0,0,0,0,0,0,0,0,0,0,0,0,0,0,0,0,0,0,0,0,0,0,0,0,0,0,0,0,0,0,0,0,0,0,0,0,0,0,0,0,0,0,0,0,0,0,0,0,0,0,0,0],"id":13,"left_children":[1,3,5,7,9,11,13,15,17,19,21,23,25,27,29,31,-1,-1,33,-1,35,37,39,41,43,-1,45,47,49,51,53,-1,55,-1,-1,-1,57,-1,-1,-1,59,61,-1,63,-1,-1,65,67,-1,69,71,-1,-1,73,-1,-1,-1,-1,-1,-1,-1,-1,-1,-1,-1,-1,-1,-1,-1,-1,-1,-1,-1,-1,-1],"loss_changes":[2.8795007E2,2.1403214E1,4.0172775E1,1.8409163E1,1.0716568E1,1.3958359E1,5.2538616E1,8.975558E0,5.264683E0,2.0158386E-1,1.5882257E1,2.1119713E1,2.4780273E-1,1.9377285E1,4.4028473E0,1.5741405E0,0E0,0E0,2.4017353E0,0E0,1.7228699E-1,3.1653786E-1,9.44136E0,1.2939938E1,2.6452007E0,0E0,1.2251282E-1,2.9743652E0,4.790538E0,5.514642E0,4.154846E0,0E0,3.9631262E0,0E0,0E0,0E0,8.027649E-2,0E0,0E0,0E0,3.867693E-1,8.382852E-1,0E0,2.5946236E0,0E0,0E0,1.1375427E-1,1.4585762E0,0E0,8.454078E0,4.374579E0,0E0,0E0,2.358715E0,0E0,0E0,0E0,0E0,0E0,0E0,0E0,0E0,0E0,0E0,0E0,0E0,0E0,0E0,0E0,0E0,0E0,0E0,0E0,0E0,0E0],"parents":[2147483647,0,0,1,1,2,2,3,3,4,4,5,5,6,6,7,7,8,8,9,9,10,10,11,11,12,12,13,13,14,14,15,15,18,18,20,20,21,21,22,22,23,23,24,24,26,26,27,27,28,28,29,29,30,30,32,32,36,36,40,40,41,41,43,43,46,46,47,47,49,49,50,50,53,53],"right_children":[2,4,6,8,10,12,14,16,18,20,22,24,26,28,30,32,-1,-1,34,-1,36,38,40,42,44,-1,46,48,50,52,54,-1,56,-1,-1,-1,58,-1,-1,-1,60,62,-1,64,-1,-1,66,68,-1,70,72,-1,-1,74,-1,-1,-1,-1,-1,-1,-1,-1,-1,-1,-1,-1,-1,-1,-1,-1,-1,-1,-1,-1,-1],"split_conditions":[-1.314636E-1,-7.69585E-1,2.7070355E-1,-4.544469E-1,7.71577E-1,-4.9391055E-1,3.8354927E-1,7.293766E-1,-9.014235E-1,-1.7492697E0,-4.544469E-1,1.4330012E-1,-1.7733351E0,3.9516732E-1,-9.014235E-1,4.0511325E-1,4.3165203E-2,-3.3995476E-2,8.2083946E-1,-1.8180273E-2,-2.9036844E-2,-9.179498E-1,2.4871989E-1,-5.9391266E-1,1.4331946E0,1.7262777E-2,-1.6489502E0,3.6601308E-1,1.0034186E-1,6.5624374E-1,1.4087913E0,-6.617203E-2,-6.846215E-1,6.194517E-2,-5.310115E-3,-1.7839165E-2,-1.7777046E0,-1.5609941E-2,-6.573766E-2,6.1768483E-2,-3.869008E-1,-2.2960393E-1,-6.884273E-2,-2.3055123E-1,-6.3016624E-3,1.8860113E-2,-1.6044955E0,3.410666E-1,3.8003744E-4,9.973818E-1,1.0528774E0,-5.1209945E-2,4.802216E-2,1.3640906E0,-8.60784E-3,-5.2805245E-2,3.2385048E-2,-1.9494645E-2,-6.801554E-2,-8.349001E-3,-5.2574523E-2,5.3621836E-2,1.9230789E-3,-3.148519E-3,6.498701E-2,1.9402547E-2,6.886623E-2,-1.509772E-2,-6.8780586E-2,-5.98589E-2,4.582489E-2,5.7978727E-2,-2.8659005E-2,6.6060945E-2,-4.265159E-3],"split_indices":[0,5,5,0,12,12,0,12,12,11,0,0,39,12,12,32,0,0,39,0,42,11,5,5,24,0,26,0,0,0,5,0,0,0,0,0,1,0,0,0,38,44,0,53,0,0,38,5,0,12,5,0,0,26,0,0,0,0,0,0,0,0,0,0,0,0,0,0,0,0,0,0,0,0,0],"split_type":[0,0,0,0,0,0,0,0,0,0,0,0,0,0,0,0,0,0,0,0,0,0,0,0,0,0,0,0,0,0,0,0,0,0,0,0,0,0,0,0,0,0,0,0,0,0,0,0,0,0,0,0,0,0,0,0,0,0,0,0,0,0,0,0,0,0,0,0,0,0,0,0,0,0,0],"sum_hessian":[3.4025943E2,1.4624338E2,1.9401605E2,2.6906485E1,1.1933688E2,1.233912E2,7.0624855E1,1.6373947E1,1.0532537E1,1.0101657E2,1.8320314E1,3.046971E1,9.292149E1,3.530497E1,3.531988E1,1.447564E1,1.8983058E0,1.4267343E0,9.1058035E0,1.0891101E0,9.992746E1,1.030845E1,8.011866E0,9.840545E0,2.0629164E1,1.0377529E0,9.1883736E1,2.2471424E1,1.2833548E1,3.6100926E0,3.170979E1,1.0636932E1,3.8387077E0,7.7168174E0,1.3889861E0,1.021237E0,9.890623E1,1.0880443E0,9.220406E0,5.3722897E0,2.6395755E0,3.4006133E0,6.439932E0,1.9201601E1,1.427562E0,1.032953E0,9.0850784E1,2.0551441E1,1.9199833E0,5.7852983E0,7.0482492E0,1.6886218E0,1.9214708E0,2.9804121E1,1.9056684E0,2.4220958E0,1.4166119E0,1.0544689E0,9.785175E1,1.1745698E0,1.4650058E0,2.2681177E0,1.1324958E0,1.4122359E0,1.7789366E1,1.0594912E0,8.97913E1,2.0524564E0,1.8498985E1,3.4064896E0,2.3788087E0,5.8546834E0,1.1935657E0,2.8684206E1,1.1199151E0],"tree_param":{"num_deleted":"0","num_feature":"56","num_nodes":"75","size_leaf_vector":"1"}},{"base_weights":[4.7559785E-3,-8.95796E-1,8.5541016E-1,-1.1622655E0,-2.0215486E-1,3.6124626E-1,1.2170796E0,-2.4713911E-1,-1.2752374E0,4.3782443E-1,-8.8161004E-1,1.0423354E0,-3.6701792E-1,1.2746757E0,1.446475E-1,-9.408384E-1,4.9124518E-1,-1.484133E-2,-1.2866354E0,1.0903778E0,7.603673E-2,-3.7464902E-1,-1.2046794E0,1.2990816E0,7.2444886E-1,1.5733133E-1,-6.7838585E-1,1.2905734E0,-2.7938935E-4,-6.244065E-1,5.1790696E-2,-1.117792E0,1.947754E-3,8.1084126E-1,-2.126413E-2,-5.665604E-1,-1.305751E0,6.3057475E-2,-2.6633502E-3,-4.091459E-1,7.015318E-1,-9.214941E-1,5.9757674E-1,-6.474563E-2,-4.5125135E-3,1.771873E-2,6.659035E-2,-3.1104932E-2,8.441332E-1,-2.9195002E-1,6.4780104E-1,-1.1021283E0,-2.3172165E-1,1.6222347E-2,1.2986931E0,-5.74408E-2,8.697007E-3,-6.0652167E-2,-1.6447878E-2,-8.243639E-3,5.4527767E-2,1.8834805E-2,-5.036478E-2,-1.7372536E-2,-6.564931E-2,3.5105664E-2,-3.4883276E-2,-7.858804E-3,5.114782E-2,-5.9289284E-2,1.0258485E-2,-6.1995345E-3,5.068913E-2,5.374522E-2,9.445272E-3,2.5577703E-2,-3.574021E-2,4.898162E-2,-1.968469E-2,-6.3529186E-2,-2.2194409E-3,-5.4374255E-2,8.738813E-3,6.5335E-2,1.6220858E-2],"categories":[],"categories_nodes":[],"categories_segments":[],"categories_sizes":[],"default_left":[0,0,0,0,0,0,0,0,0,0,0,0,0,0,0,0,0,0,0,0,0,0,0,0,0,0,0,0,0,0,0,0,0,0,0,0,0,0,0,0,0,0,0,0,0,0,0,0,0,0,0,0,0,0,0,0,0,0,0,0,0,0,0,0,0,0,0,0,0,0,0,0,0,0,0,0,0,0,0,0,0,0,0,0,0],"id":14,"left_children":[1,3,5,7,9,11,13,15,17,19,21,23,25,27,29,31,33,-1,35,37,39,41,43,45,47,49,51,53,-1,55,-1,57,-1,59,-1,61,63,-1,-1,65,67,69,71,-1,-1,-1,-1,-1,73,75,77,79,81,-1,83,-1,-1,-1,-1,-1,-1,-1,-1,-1,-1,-1,-1,-1,-1,-1,-1,-1,-1,-1,-1,-1,-1,-1,-1,-1,-1,-1,-1,-1,-1],"loss_changes":[2.5413835E2,2.9551147E1,3.0050201E1,1.1699463E1,2.0360798E1,3.684716E1,5.873947E0,7.638583E0,7.6898193E-1,5.6595235E0,3.2522717E0,2.1805763E0,6.027871E0,1.8991394E0,4.8460183E0,1.3554702E0,2.5252142E0,0E0,6.602936E-1,1.7468853E0,5.3620934E0,6.001663E0,1.2265892E0,1.43219E-1,3.6436214E0,3.345528E0,4.0870495E0,2.9891968E-1,0E0,1.8379557E0,0E0,8.506966E-2,0E0,1.7799785E0,0E0,2.2073274E0,2.2549438E-1,0E0,0E0,3.7118797E0,2.2787545E0,2.3143644E0,1.4163294E0,0E0,0E0,0E0,0E0,0E0,2.5481625E0,3.1399083E0,2.859735E0,1.9940062E0,4.5159993E0,0E0,2.8379822E-1,0E0,0E0,0E0,0E0,0E0,0E0,0E0,0E0,0E0,0E0,0E0,0E0,0E0,0E0,0E0,0E0,0E0,0E0,0E0,0E0,0E0,0E0,0E0,0E0,0E0,0E0,0E0,0E0,0E0,0E0],"parents":[2147483647,0,0,1,1,2,2,3,3,4,4,5,5,6,6,7,7,8,8,9,9,10,10,11,11,12,12,13,13,14,14,15,15,16,16,18,18,19,19,20,20,21,21,22,22,23,23,24,24,25,25,26,26,27,27,29,29,31,31,33,33,35,35,36,36,39,39,40,40,41,41,42,42,48,48,49,49,50,50,51,51,52,52,54,54],"right_children":[2,4,6,8,10,12,14,16,18,20,22,24,26,28,30,32,34,-1,36,38,40,42,44,46,48,50,52,54,-1,56,-1,58,-1,60,-1,62,64,-1,-1,66,68,70,72,-1,-1,-1,-1,-1,74,76,78,80,82,-1,84,-1,-1,-1,-1,-1,-1,-1,-1,-1,-1,-1,-1,-1,-1,-1,-1,-1,-1,-1,-1,-1,-1,-1,-1,-1,-1,-1,-1,-1,-1],"split_conditions":[-1.5472238E-2,-2.5979507E-1,3.8354927E-1,-9.951994E-1,-1.1973561E-1,7.89485E-2,1.129916E0,-6.846215E-1,-3.0701432E-1,-7.085979E-1,-1.4988644E-1,-3.7987998E-1,4.4039908E-1,1.6476611E0,6.815042E-1,4.7395605E-1,-1.0807248E0,-1.484133E-2,-1.4291291E0,6.938249E-1,-1.5773527E-2,3.5164088E-2,9.240914E-1,-1.0340817E0,-3.5087746E-1,2.0400757E-1,-1.4192057E-1,-1.6334032E0,-2.7938935E-4,3.137948E-1,5.1790696E-2,3.8263807E-1,1.947754E-3,-4.2554772E-1,-2.126413E-2,-4.8537302E-1,-1.5257356E0,6.3057475E-2,-2.6633502E-3,-6.0851794E-1,-5.3592163E-1,6.0496527E-1,7.2699976E-1,-6.474563E-2,-4.5125135E-3,1.771873E-2,6.659035E-2,-3.1104932E-2,2.849633E-1,-4.8537302E-1,4.84735E-1,9.048683E-1,-3.165898E-1,1.6222347E-2,1.9077132E0,-5.74408E-2,8.697007E-3,-6.0652167E-2,-1.6447878E-2,-8.243639E-3,5.4527767E-2,1.8834805E-2,-5.036478E-2,-1.7372536E-2,-6.564931E-2,3.5105664E-2,-3.4883276E-2,-7.858804E-3,5.114782E-2,-5.9289284E-2,1.0258485E-2,-6.1995345E-3,5.068913E-2,5.374522E-2,9.445272E-3,2.5577703E-2,-3.574021E-2,4.898162E-2,-1.968469E-2,-6.3529186E-2,-2.2194409E-3,-5.4374255E-2,8.738813E-3,6.5335E-2,1.6220858E-2],"split_indices":[0,0,0,5,5,5,5,0,53,5,37,5,5,24,0,8,5,0,24,26,19,21,30,1,5,0,37,30,0,28,0,17,0,4,0,16,28,0,0,31,5,11,48,0,0,0,0,0,16,16,24,24,46,0,1,0,0,0,0,0,0,0,0,0,0,0,0,0,0,0,0,0,0,0,0,0,0,0,0,0,0,0,0,0,0],"split_type":[0,0,0,0,0,0,0,0,0,0,0,0,0,0,0,0,0,0,0,0,0,0,0,0,0,0,0,0,0,0,0,0,0,0,0,0,0,0,0,0,0,0,0,0,0,0,0,0,0,0,0,0,0,0,0,0,0,0,0,0,0,0,0,0,0,0,0,0,0,0,0,0,0,0,0,0,0,0,0,0,0,0,0,0,0],"sum_hessian":[3.2974777E2,1.601503E2,1.6959747E2,1.1521401E2,4.4936283E1,7.251545E1,9.708202E1,1.3010479E1,1.0220353E2,2.3323494E1,2.1612791E1,3.7248528E1,3.5266926E1,9.195491E1,5.1271152E0,6.5668507E0,6.4436283E0,1.488299E0,1.0071523E2,7.600562E0,1.5722932E1,9.252852E0,1.2359938E1,1.889835E1,1.835018E1,1.3323916E1,2.1943007E1,9.081911E1,1.1358008E0,2.9127896E0,2.2143257E0,5.4429865E0,1.1238644E0,4.863146E0,1.580482E0,3.396842E0,9.731839E1,6.5236855E0,1.0768766E0,9.049399E0,6.6735325E0,5.9553466E0,3.2975063E0,1.1284317E1,1.0756202E0,1.0287715E0,1.7869577E1,1.155216E0,1.7194963E1,7.1651926E0,6.158724E0,1.0507379E1,1.1435629E1,1.0982673E0,8.972084E1,1.4930542E0,1.4197356E0,4.3767323E0,1.066254E0,1.175003E0,3.688143E0,1.128003E0,2.2688391E0,1.096595E0,9.6221794E1,1.5697737E0,7.4796257E0,1.9568021E0,4.71673E0,4.7812834E0,1.1740633E0,1.4630831E0,1.8344231E0,1.2242611E1,4.952352E0,2.3982651E0,4.7669277E0,4.7156615E0,1.4430625E0,8.890288E0,1.6170903E0,3.1432254E0,8.292403E0,8.865107E1,1.0697726E0],"tree_param":{"num_deleted":"0","num_feature":"56","num_nodes":"85","size_leaf_vector":"1"}},{"base_weights":[2.0859456E-2,4.515908E-1,-1.161248E-1,2.5382033E-1,7.6195544E-1,-5.4314446E-1,7.144483E-2,7.374558E-1,-7.05955E-2,8.9319986E-1,1.18905775E-1,1.972244E-2,-6.7349285E-1,4.1423282E-1,-1.8701068E-1,9.285231E-1,1.3133419E-1,4.566185E-2,-2.0271586E-1,9.8293036E-1,-2.2852672E-2,-3.4104045E-2,5.6592345E-1,-3.647094E-1,8.033963E-1,-1.1518685E0,-5.521288E-1,1.900617E-2,6.312182E-1,5.9430003E-1,-2.4839881E-1,1.0667561E0,1.7617422E-1,4.758502E-2,-5.35795E-1,1.5221433E-1,-5.8772784E-1,1.0646486E0,-1.5199835E-2,4.9804747E-2,-2.4154184E-2,2.6842418E-1,-8.259389E-1,5.0441373E-2,1.2403828E-3,-6.2002856E-2,-6.4216866E-3,-1.216663E-1,-8.4429353E-1,-3.5780632E-1,3.8834763E-1,3.0899608E-1,9.203687E-1,-2.7123463E-1,9.882004E-1,8.444505E-2,-4.222814E-1,5.9993148E-2,1.2942733E-2,3.5072822E-2,-1.774793E-2,-4.966879E-2,1.9312227E-2,4.8613384E-2,-7.5206156E-3,-4.2092606E-2,1.0883103E-2,-6.4812386E-3,5.668282E-2,3.2583356E-2,-3.4881122E-2,-5.433042E-2,1.3684349E-2,-1.407201E-2,4.2805403E-2,9.022871E-3,-4.6552442E-2,9.335531E-3,-3.7133764E-2,4.5777608E-2,4.1820086E-3,-1.0134174E-2,3.6417138E-2,4.9900513E-2,-9.675363E-3,6.800521E-3,-2.691545E-2,9.4690025E-3,5.645609E-2,1.1614017E-2,-2.8850008E-2,1.8303063E-2,-2.5347957E-2],"categories":[],"categories_nodes":[],"categories_segments":[],"categories_sizes":[],"default_left":[0,0,0,0,0,0,0,0,0,0,0,0,0,0,0,0,0,0,0,0,0,0,0,0,0,0,0,0,0,0,0,0,0,0,0,0,0,0,0,0,0,0,0,0,0,0,0,0,0,0,0,0,0,0,0,0,0,0,0,0,0,0,0,0,0,0,0,0,0,0,0,0,0,0,0,0,0,0,0,0,0,0,0,0,0,0,0,0,0,0,0,0,0],"id":15,"left_children":[1,3,5,7,9,11,13,15,17,19,21,23,25,27,29,31,33,-1,35,37,-1,-1,39,41,43,45,47,49,51,53,55,57,59,-1,61,63,65,67,-1,-1,-1,69,71,-1,-1,-1,-1,73,75,77,79,81,83,85,87,89,91,-1,-1,-1,-1,-1,-1,-1,-1,-1,-1,-1,-1,-1,-1,-1,-1,-1,-1,-1,-1,-1,-1,-1,-1,-1,-1,-1,-1,-1,-1,-1,-1,-1,-1,-1,-1],"loss_changes":[1.932577E1,4.657015E0,1.9952751E1,7.860164E0,2.4473248E0,5.5890007E0,1.5460338E1,2.2020178E0,4.1754003E0,3.4751053E0,2.6353345E0,4.8907886E0,2.9481716E0,6.415531E0,4.928654E0,1.3816967E0,3.7796147E0,0E0,3.899607E0,2.8197937E0,0E0,0E0,2.5472412E0,3.4124646E0,8.282635E-1,8.8517284E-1,6.3317595E0,3.979446E0,4.220793E0,2.8442194E0,5.4253364E0,1.0392427E0,1.2367557E0,0E0,2.043766E0,3.943755E0,2.9626393E0,2.0045948E0,0E0,0E0,0E0,2.4389822E0,2.1796684E0,0E0,0E0,0E0,0E0,3.6550007E0,2.862524E0,3.1103177E0,2.2391403E0,5.3777113E0,2.353424E0,4.1559893E-1,3.9498615E-1,3.340304E0,4.28006E0,0E0,0E0,0E0,0E0,0E0,0E0,0E0,0E0,0E0,0E0,0E0,0E0,0E0,0E0,0E0,0E0,0E0,0E0,0E0,0E0,0E0,0E0,0E0,0E0,0E0,0E0,0E0,0E0,0E0,0E0,0E0,0E0,0E0,0E0,0E0,0E0],"parents":[2147483647,0,0,1,1,2,2,3,3,4,4,5,5,6,6,7,7,8,8,9,9,10,10,11,11,12,12,13,13,14,14,15,15,16,16,18,18,19,19,22,22,23,23,24,24,25,25,26,26,27,27,28,28,29,29,30,30,31,31,32,32,34,34,35,35,36,36,37,37,41,41,42,42,47,47,48,48,49,49,50,50,51,51,52,52,53,53,54,54,55,55,56,56],"right_children":[2,4,6,8,10,12,14,16,18,20,22,24,26,28,30,32,34,-1,36,38,-1,-1,40,42,44,46,48,50,52,54,56,58,60,-1,62,64,66,68,-1,-1,-1,70,72,-1,-1,-1,-1,74,76,78,80,82,84,86,88,90,92,-1,-1,-1,-1,-1,-1,-1,-1,-1,-1,-1,-1,-1,-1,-1,-1,-1,-1,-1,-1,-1,-1,-1,-1,-1,-1,-1,-1,-1,-1,-1,-1,-1,-1,-1,-1],"split_conditions":[6.2095684E-1,8.0410874E-1,7.5689316E-1,2.3688033E-1,8.3504826E-1,-8.5950917E-1,1.2666965E0,8.656906E-1,-7.693231E-1,1.5618447E0,-4.5639303E-1,4.716789E-1,5.565924E-1,-3.9144567E-1,-2.9444158E-1,1.0319782E0,-1.2198605E-1,4.566185E-2,-1.8028446E-2,1.1911451E0,-2.2852672E-2,-3.4104045E-2,1.1481843E0,-2.1441138E-1,4.7196373E-1,1.016591E0,1.0319539E0,1.4262196E0,6.1855923E-2,-6.153273E-1,1.6004084E0,8.5247976E-1,1.4973271E-1,4.758502E-2,4.050856E-1,-3.140901E-1,5.525135E-1,-1.2034272E0,-1.5199835E-2,4.9804747E-2,-2.4154184E-2,3.4078702E-1,8.167316E-1,5.0441373E-2,1.2403828E-3,-6.2002856E-2,-6.4216866E-3,9.5946026E-1,-9.2670935E-1,1.6786055E-1,-4.852077E-1,1.2398362E0,1.0631621E0,-7.6085E-1,1.7135315E0,1.8353555E0,-1.0601761E0,5.9993148E-2,1.2942733E-2,3.5072822E-2,-1.774793E-2,-4.966879E-2,1.9312227E-2,4.8613384E-2,-7.5206156E-3,-4.2092606E-2,1.0883103E-2,-6.4812386E-3,5.668282E-2,3.2583356E-2,-3.4881122E-2,-5.433042E-2,1.3684349E-2,-1.407201E-2,4.2805403E-2,9.022871E-3,-4.6552442E-2,9.335531E-3,-3.7133764E-2,4.5777608E-2,4.1820086E-3,-1.0134174E-2,3.6417138E-2,4.9900513E-2,-9.675363E-3,6.800521E-3,-2.691545E-2,9.4690025E-3,5.645609E-2,1.1614017E-2,-2.8850008E-2,1.8303063E-2,-2.5347957E-2],"split_indices":[50,41,42,50,38,6,50,36,23,31,34,10,47,10,53,31,46,0,53,23,0,0,45,27,22,9,40,41,29,43,40,18,16,0,19,28,34,38,0,0,0,31,23,0,0,0,0,16,26,13,28,47,6,14,51,49,28,0,0,0,0,0,0,0,0,0,0,0,0,0,0,0,0,0,0,0,0,0,0,0,0,0,0,0,0,0,0,0,0,0,0,0,0],"split_type":[0,0,0,0,0,0,0,0,0,0,0,0,0,0,0,0,0,0,0,0,0,0,0,0,0,0,0,0,0,0,0,0,0,0,0,0,0,0,0,0,0,0,0,0,0,0,0,0,0,0,0,0,0,0,0,0,0,0,0,0,0,0,0,0,0,0,0,0,0,0,0,0,0,0,0,0,0,0,0,0,0,0,0,0,0,0,0,0,0,0,0,0,0],"sum_hessian":[3.256477E2,7.802146E1,2.4762625E2,4.8765152E1,2.925631E1,7.499576E1,1.726305E2,1.906704E1,2.969811E1,2.3974237E1,5.282073E0,1.4261376E1,6.0734383E1,7.394928E1,9.868121E1,1.4092699E1,4.974342E0,2.816076E0,2.6882034E1,2.2735405E1,1.238831E0,1.7036133E0,3.5784597E0,9.926526E0,4.33485E0,1.0572035E1,5.016235E1,2.6595201E1,4.7354076E1,6.5562487E0,9.212496E1,1.1552245E1,2.540454E0,2.0396414E0,2.9347005E0,1.4302069E1,1.2579967E1,2.154034E1,1.1950657E0,2.5735512E0,1.0049086E0,4.359807E0,5.5667195E0,3.1958973E0,1.1389524E0,9.53845E0,1.0335848E0,2.085377E1,2.9308578E1,1.3179915E1,1.3415287E1,2.3374619E1,2.3979458E1,2.1479268E0,4.408322E0,3.1789074E1,6.0335888E1,9.501632E0,2.0506134E0,1.1160338E0,1.4244201E0,1.9096366E0,1.0250638E0,3.258761E0,1.1043307E1,9.52825E0,3.0517168E0,1.1286746E0,2.0411665E1,3.3544738E0,1.0053334E0,4.5095544E0,1.0571651E0,1.8536898E1,2.3168721E0,2.2032912E0,2.7105288E1,5.671163E0,7.5087523E0,4.1794004E0,9.235887E0,1.0760954E1,1.2613665E1,2.2514153E1,1.4653057E0,1.0450834E0,1.1028434E0,1.0125422E0,3.3957794E0,2.6512308E1,5.276764E0,5.5299087E0,5.480598E1],"tree_param":{"num_deleted":"0","num_feature":"56","num_nodes":"93","size_leaf_vector":"1"}},{"base_weights":[-9.355397E-3,-1.0222677E0,7.0192534E-1,-2.4211754E-1,-1.1683732E0,2.3815396E-1,1.199776E0,-6.851612E-1,5.391983E-2,-1.2848676E0,-3.963659E-1,9.055139E-1,-5.4953456E-1,1.2309098E0,-1.4001253E-2,-1.009558E0,5.527912E-1,-6.590483E-2,-8.5817105E-1,-1.1487589E0,4.6982732E-1,-8.694438E-1,1.11267E0,-8.2000417E-1,8.010598E-1,7.508486E-2,1.2635093E0,1.0979059E-2,-1.1835564E0,5.4810163E-2,-2.5006047E-2,-6.332943E-2,-7.527884E-2,-6.1569013E-2,-1.3642463E-2,5.9388507E-2,-5.4553546E-2,1.5776863E-2,-6.2895805E-2,4.676938E-1,1.2482588E0,-1.1982771E0,-2.5831744E-1,6.1278414E-2,-3.406578E-2,4.1395515E-2,-3.6997847E-2,6.161282E-1,1.2917886E0,-6.644801E-2,-1.7204106E-2,4.3687116E-2,-3.8814254E-2,5.915438E-2,-1.5472374E-2,1.35352975E-2,6.4898096E-2,-6.472059E-2,-2.7080277E-2,-6.61079E-2,1.7551025E-2,5.1854264E-2,-2.7503667E-2,6.507783E-2,1.7226106E-2],"categories":[],"categories_nodes":[],"categories_segments":[],"categories_sizes":[],"default_left":[0,0,0,0,0,0,0,0,0,0,0,0,0,0,0,0,0,0,0,0,0,0,0,0,0,0,0,0,0,0,0,0,0,0,0,0,0,0,0,0,0,0,0,0,0,0,0,0,0,0,0,0,0,0,0,0,0,0,0,0,0,0,0,0,0],"id":16,"left_children":[1,3,5,7,9,11,13,15,-1,17,19,21,23,25,-1,27,29,-1,31,33,35,37,39,41,43,45,47,-1,49,-1,-1,-1,51,-1,-1,-1,-1,-1,-1,53,55,57,59,-1,-1,-1,-1,61,63,-1,-1,-1,-1,-1,-1,-1,-1,-1,-1,-1,-1,-1,-1,-1,-1],"loss_changes":[2.3045822E2,1.4757782E1,4.3103928E1,1.3654051E1,9.462509E0,5.229723E1,4.5088654E0,7.4417534E0,0E0,2.2850037E-1,1.0956604E1,2.0720657E1,1.739386E1,3.2475586E0,0E0,3.2403326E0,2.9543405E0,0E0,3.0362983E0,3.040495E-1,1.0417583E1,3.239931E0,3.6616287E0,7.906151E0,5.9638886E0,2.7580152E0,7.8240967E-1,0E0,1.0519409E0,0E0,0E0,0E0,3.6193786E0,0E0,0E0,0E0,0E0,0E0,0E0,5.9434705E0,1.5685234E0,7.402649E-1,1.13778E1,0E0,0E0,0E0,0E0,3.2804532E0,3.074646E-1,0E0,0E0,0E0,0E0,0E0,0E0,0E0,0E0,0E0,0E0,0E0,0E0,0E0,0E0,0E0,0E0],"parents":[2147483647,0,0,1,1,2,2,3,3,4,4,5,5,6,6,7,7,9,9,10,10,11,11,12,12,13,13,15,15,16,16,18,18,19,19,20,20,21,21,22,22,23,23,24,24,25,25,26,26,28,28,32,32,39,39,40,40,41,41,42,42,47,47,48,48],"right_children":[2,4,6,8,10,12,14,16,-1,18,20,22,24,26,-1,28,30,-1,32,34,36,38,40,42,44,46,48,-1,50,-1,-1,-1,52,-1,-1,-1,-1,-1,-1,54,56,58,60,-1,-1,-1,-1,62,64,-1,-1,-1,-1,-1,-1,-1,-1,-1,-1,-1,-1,-1,-1,-1,-1],"split_conditions":[-1.6633825E-1,-8.061233E-1,3.8354927E-1,-3.661945E-1,8.644233E-1,9.250456E-2,1.4087913E0,4.206479E-1,5.391983E-2,-2.2715756E-1,-4.7744268E-1,-1.0113553E0,6.956933E-1,-1.6637086E0,-1.4001253E-2,-7.0410734E-1,4.3009216E-1,-6.590483E-2,1.1813085E-1,6.373035E-1,2.4871989E-1,-2.3139286E-1,-4.6506065E-1,1.8350819E-1,5.1920897E-1,-3.096766E-1,-1.1530043E0,1.0979059E-2,5.1253587E-1,5.4810163E-2,-2.5006047E-2,-6.332943E-2,-2.8825346E-1,-6.1569013E-2,-1.3642463E-2,5.9388507E-2,-5.4553546E-2,1.5776863E-2,-6.2895805E-2,-5.9391266E-1,-1.0624474E0,1.6673537E0,-5.3549796E-1,6.1278414E-2,-3.406578E-2,4.1395515E-2,-3.6997847E-2,3.2247204E-1,1.4042281E0,-6.644801E-2,-1.7204106E-2,4.3687116E-2,-3.8814254E-2,5.915438E-2,-1.5472374E-2,1.35352975E-2,6.4898096E-2,-6.472059E-2,-2.7080277E-2,-6.61079E-2,1.7551025E-2,5.1854264E-2,-2.7503667E-2,6.507783E-2,1.7226106E-2],"split_indices":[0,5,0,0,12,5,5,12,0,0,0,12,12,12,0,15,33,0,12,14,5,4,12,0,14,43,2,0,34,0,0,0,5,0,0,0,0,0,0,5,1,49,12,0,0,0,0,5,21,0,0,0,0,0,0,0,0,0,0,0,0,0,0,0,0],"split_type":[0,0,0,0,0,0,0,0,0,0,0,0,0,0,0,0,0,0,0,0,0,0,0,0,0,0,0,0,0,0,0,0,0,0,0,0,0,0,0,0,0,0,0,0,0,0,0,0,0,0,0,0,0,0,0,0,0,0,0,0,0,0,0,0,0],"sum_hessian":[3.1787833E2,1.3095386E2,1.8692445E2,2.1075508E1,1.0987836E2,9.7539856E1,8.9384605E1,1.6141155E1,4.9343534E0,9.4894615E1,1.4983737E1,5.272209E1,4.481776E1,8.7707504E1,1.6770986E0,1.2935889E1,3.2052667E0,8.610048E1,8.794139E0,7.844034E0,7.139703E0,5.1759973E0,4.7546097E1,3.7667362E1,7.1503983E0,2.4965E0,8.5211006E1,1.57165E0,1.1364239E1,2.087028E0,1.1182387E0,5.3732176E0,3.4209216E0,6.797063E0,1.0469714E0,5.0540943E0,2.0856087E0,1.3242635E0,3.851734E0,9.031921E0,3.8514175E1,2.1831436E1,1.5835927E1,5.6932573E0,1.4571406E0,1.2895756E0,1.2069244E0,4.520199E0,8.06908E1,9.189464E0,2.1747751E0,1.3486753E0,2.0722463E0,4.430805E0,4.6011157E0,2.1753883E0,3.6338787E1,1.8196373E1,3.635063E0,5.341099E0,1.0494829E1,3.4026713E0,1.1175275E0,7.949704E1,1.1937639E0],"tree_param":{"num_deleted":"0","num_feature":"56","num_nodes":"65","size_leaf_vector":"1"}},{"base_weights":[-2.1826068E-2,-4.6424103E-1,2.0791988E-1,-1.4916915E-1,-7.499619E-1,4.7701082E-1,-2.4914414E-1,9.422449E-2,-5.617041E-1,-4.4997454E-1,-1.0049975E0,7.7197057E-1,2.3366731E-1,1.244927E-1,-4.979942E-1,6.146479E-1,-1.4357834E-1,-7.465622E-1,1.1732323E-1,2.5413153E-1,-6.4907014E-1,-1.0734353E0,-2.952872E-1,5.147671E-1,1.0740522E0,5.356044E-1,1.6780553E-2,-3.9698434E-1,6.2189645E-1,-3.6678052E-1,-1.0756301E0,9.5714176E-1,-1.127856E-1,-3.0237448E-1,4.8670586E-2,1.5116199E-2,-9.118429E-1,-6.011733E-1,4.511304E-2,4.7840614E-2,-3.6874092E-1,-1.8184443E-1,-9.72343E-1,-1.1114376E0,-7.465988E-3,2.482621E-2,-4.240152E-2,-1.839915E-1,6.224773E-1,9.073956E-3,1.1230942E0,7.221245E-1,-1.3100445E-1,-4.4308382E-1,2.2906406E-1,1.5771243E-1,-8.7497675E-1,7.494203E-1,-2.0402148E-2,4.0818956E-1,-4.5310634E-1,-6.0458828E-2,-5.9303017E-3,3.5075787E-3,5.430889E-2,-2.9913342E-2,2.7723685E-2,-1.9551113E-3,-4.6117727E-2,-4.2690113E-5,-5.461749E-2,-5.347218E-3,-3.9134897E-2,-4.1851345E-2,7.2484533E-3,2.8541489E-2,-2.4007095E-2,1.1423467E-2,-5.7082076E-2,-5.7244625E-2,-1.0085657E-2,-3.4515038E-2,2.2488488E-2,3.9641622E-2,9.1684265E-3,5.8199055E-2,8.078086E-3,4.2058762E-2,2.4429513E-3,3.0480314E-2,-3.0626392E-2,2.4908619E-2,-3.3570893E-2,-1.0665971E-2,2.703092E-2,-2.2511922E-2,2.6495544E-2,9.79017E-3,-5.6946315E-2,4.4010133E-2,-2.5918234E-2,4.3617334E-2,-2.4686117E-2,1.9017955E-2,-2.7204558E-2],"categories":[],"categories_nodes":[],"categories_segments":[],"categories_sizes":[],"default_left":[0,0,0,0,0,0,0,0,0,0,0,0,0,0,0,0,0,0,0,0,0,0,0,0,0,0,0,0,0,0,0,0,0,0,0,0,0,0,0,0,0,0,0,0,0,0,0,0,0,0,0,0,0,0,0,0,0,0,0,0,0,0,0,0,0,0,0,0,0,0,0,0,0,0,0,0,0,0,0,0,0,0,0,0,0,0,0,0,0,0,0,0,0,0,0,0,0,0,0,0,0,0,0,0,0],"id":17,"left_children":[1,3,5,7,9,11,13,15,17,19,21,23,25,27,29,31,33,35,37,39,41,43,45,47,49,51,53,55,57,59,61,63,65,67,-1,-1,69,71,-1,-1,73,75,77,79,-1,-1,-1,81,83,-1,85,87,89,91,93,95,97,99,-1,101,103,-1,-1,-1,-1,-1,-1,-1,-1,-1,-1,-1,-1,-1,-1,-1,-1,-1,-1,-1,-1,-1,-1,-1,-1,-1,-1,-1,-1,-1,-1,-1,-1,-1,-1,-1,-1,-1,-1,-1,-1,-1,-1,-1,-1],"loss_changes":[3.1798674E1,9.513014E0,2.5452763E1,5.283682E0,3.8185387E0,9.150103E0,7.220217E0,4.249059E0,2.5320778E0,4.0145493E0,1.1091003E0,3.9791756E0,4.7494454E0,8.437452E0,3.1230764E0,2.7821784E0,4.53121E0,2.9528694E0,3.3799953E0,3.3167613E0,3.099125E0,7.6112556E-1,2.154987E0,2.6302748E0,9.3011475E-1,3.867382E0,4.3304377E0,4.387089E0,2.4796515E0,2.8165731E0,8.8842773E-1,7.711272E-1,1.7345744E0,3.502056E0,0E0,0E0,2.2337608E0,2.0580506E-1,0E0,0E0,1.1585677E0,2.5416772E0,2.82018E0,5.3604317E-1,0E0,0E0,0E0,1.9906448E0,2.0381403E0,0E0,7.6973724E-1,1.8715858E0,3.0410876E0,3.3481886E0,4.2911E0,2.1087794E0,2.6990838E0,2.9566107E0,0E0,2.3014247E0,2.9269128E0,0E0,0E0,0E0,0E0,0E0,0E0,0E0,0E0,0E0,0E0,0E0,0E0,0E0,0E0,0E0,0E0,0E0,0E0,0E0,0E0,0E0,0E0,0E0,0E0,0E0,0E0,0E0,0E0,0E0,0E0,0E0,0E0,0E0,0E0,0E0,0E0,0E0,0E0,0E0,0E0,0E0,0E0,0E0,0E0],"parents":[2147483647,0,0,1,1,2,2,3,3,4,4,5,5,6,6,7,7,8,8,9,9,10,10,11,11,12,12,13,13,14,14,15,15,16,16,17,17,18,18,19,19,20,20,21,21,22,22,23,23,24,24,25,25,26,26,27,27,28,28,29,29,30,30,31,31,32,32,33,33,36,36,37,37,40,40,41,41,42,42,43,43,47,47,48,48,50,50,51,51,52,52,53,53,54,54,55,55,56,56,57,57,59,59,60,60],"right_children":[2,4,6,8,10,12,14,16,18,20,22,24,26,28,30,32,34,36,38,40,42,44,46,48,50,52,54,56,58,60,62,64,66,68,-1,-1,70,72,-1,-1,74,76,78,80,-1,-1,-1,82,84,-1,86,88,90,92,94,96,98,100,-1,102,104,-1,-1,-1,-1,-1,-1,-1,-1,-1,-1,-1,-1,-1,-1,-1,-1,-1,-1,-1,-1,-1,-1,-1,-1,-1,-1,-1,-1,-1,-1,-1,-1,-1,-1,-1,-1,-1,-1,-1,-1,-1,-1,-1,-1],"split_conditions":[-3.040674E-1,-5.0412584E-2,2.7070355E-1,1.6837707E0,8.133511E-1,6.3549215E-1,6.6599345E-1,-1.904778E-1,-1.1333658E-1,-6.8944687E-1,1.3873253E0,4.362253E-1,-1.3851598E-1,4.1022536E-1,1.1101234E0,9.3158714E-2,1.0120718E0,-1.3172079E0,1.1252353E0,-4.1368775E-2,1.151662E-1,9.493064E-1,1.2909738E0,-9.2858976E-1,-1.0609848E0,3.839226E-1,8.4040694E-2,1.3044369E-1,1.0319782E0,-9.027897E-1,6.637548E-1,-5.4959846E-1,6.250521E-2,6.2483364E-1,4.8670586E-2,1.5116199E-2,-8.307303E-1,1.2401706E0,4.511304E-2,4.7840614E-2,-1.7574473E-1,2.6133844E-1,-6.561131E-1,1.6787589E-1,-7.465988E-3,2.482621E-2,-4.240152E-2,1.6314572E-2,3.8935167E-1,9.073956E-3,1.5376365E0,2.7111256E0,-5.652341E-1,-5.5847144E-1,8.496725E-1,-2.7858254E-1,-4.0976822E-1,9.454086E-1,-2.0402148E-2,4.5121732E-1,-1.1469754E0,-6.0458828E-2,-5.9303017E-3,3.5075787E-3,5.430889E-2,-2.9913342E-2,2.7723685E-2,-1.9551113E-3,-4.6117727E-2,-4.2690113E-5,-5.461749E-2,-5.347218E-3,-3.9134897E-2,-4.1851345E-2,7.2484533E-3,2.8541489E-2,-2.4007095E-2,1.1423467E-2,-5.7082076E-2,-5.7244625E-2,-1.0085657E-2,-3.4515038E-2,2.2488488E-2,3.9641622E-2,9.1684265E-3,5.8199055E-2,8.078086E-3,4.2058762E-2,2.4429513E-3,3.0480314E-2,-3.0626392E-2,2.4908619E-2,-3.3570893E-2,-1.0665971E-2,2.703092E-2,-2.2511922E-2,2.6495544E-2,9.79017E-3,-5.6946315E-2,4.4010133E-2,-2.5918234E-2,4.3617334E-2,-2.4686117E-2,1.9017955E-2,-2.7204558E-2],"split_indices":[12,5,5,40,54,54,54,11,53,24,52,12,20,12,5,13,6,5,52,7,22,7,54,13,17,30,12,6,31,24,16,32,20,26,0,0,26,54,0,0,31,54,29,53,0,0,0,20,13,0,37,55,24,2,42,39,24,52,0,9,1,0,0,0,0,0,0,0,0,0,0,0,0,0,0,0,0,0,0,0,0,0,0,0,0,0,0,0,0,0,0,0,0,0,0,0,0,0,0,0,0,0,0,0,0],"split_type":[0,0,0,0,0,0,0,0,0,0,0,0,0,0,0,0,0,0,0,0,0,0,0,0,0,0,0,0,0,0,0,0,0,0,0,0,0,0,0,0,0,0,0,0,0,0,0,0,0,0,0,0,0,0,0,0,0,0,0,0,0,0,0,0,0,0,0,0,0,0,0,0,0,0,0,0,0,0,0,0,0,0,0,0,0,0,0,0,0,0,0,0,0,0,0,0,0,0,0,0,0,0,0,0,0],"sum_hessian":[3.1089688E2,1.05916306E2,2.0498056E2,5.1094807E1,5.48215E1,1.2899353E2,7.598704E1,3.262048E1,1.8474329E1,2.6460962E1,2.8360537E1,5.733035E1,7.1663185E1,3.0576927E1,4.5410107E1,9.733765E0,2.2886713E1,1.4442934E1,4.0313954E0,5.7719393E0,2.0689022E1,2.5398815E1,2.9617202E0,3.242585E1,2.4904497E1,2.9343443E1,4.2319744E1,1.5025799E1,1.5551128E1,3.833666E1,7.0734496E0,6.4032E0,3.3305647E0,2.067654E1,2.2101715E0,1.8532007E0,1.2589733E1,2.227007E0,1.8043884E0,2.4602878E0,3.3116517E0,9.099723E0,1.15893E1,2.4200901E1,1.1979144E0,1.2593685E0,1.7023517E0,4.23614E0,2.8189709E1,1.5419117E0,2.3362587E1,2.2862997E1,6.480446E0,1.3022407E1,2.9297337E1,7.265011E0,7.760788E0,1.4080135E1,1.4709928E0,3.4687028E0,3.4867954E1,5.976054E0,1.0973952E0,1.0092573E0,5.393943E0,1.987735E0,1.3428297E0,1.5259655E1,5.4168863E0,2.2481933E0,1.0341539E1,1.0251158E0,1.201891E0,1.4031744E0,1.9084773E0,2.3234613E0,6.7762613E0,1.3888507E0,1.0200449E1,2.3093151E1,1.1077498E0,2.3052623E0,1.9308773E0,1.9729841E1,8.459868E0,2.2207708E1,1.1548781E0,1.9215757E1,3.6472397E0,2.4485066E0,4.0319395E0,2.3115957E0,1.0710811E1,1.2237015E1,1.7060322E1,2.6791692E0,4.5858417E0,1.5857908E0,6.1749973E0,1.30406065E1,1.039529E0,2.3117645E0,1.1569384E0,3.1186974E0,3.1749258E1],"tree_param":{"num_deleted":"0","num_feature":"56","num_nodes":"105","size_leaf_vector":"1"}},{"base_weights":[-1.3084544E-2,-9.378236E-1,7.259018E-1,-2.5717065E-1,-1.1395547E0,9.9907106E-1,2.1756606E-2,-1.0702301E0,5.3339297E-1,-1.2403584E0,-2.5251827E-1,3.892976E-1,1.2473147E0,-7.5606024E-1,8.922641E-1,-1.211144E0,-9.728405E-2,-6.320874E-1,1.1918694E0,-5.0270804E-3,-1.2536981E0,-5.7823982E-2,5.7193404E-1,-2.877979E-1,1.1114529E0,1.563908E-2,1.2603447E0,-1.201811E0,-1.04445E-2,1.0784173E0,3.5072956E-2,-6.436837E-2,-2.0212568E-2,2.9314473E-2,-3.8001306E-2,1.7864771E-2,-9.8180217E-1,6.4489365E-2,7.6737716E-3,-1.1634026E-2,-1.2646515E0,6.2838964E-2,-3.779696E-2,1.1096144E0,-9.2896533E-1,6.370591E-2,1.8228014E-1,1.7350923E-2,1.2736481E0,-6.542145E-2,-7.1657547E-3,-5.568981E-1,5.982177E-1,-1.0059956E-2,1.1981313E0,-4.201972E-2,4.8524755E-1,-3.5099934E-3,-5.9754886E-2,-1.4045767E-2,-6.361481E-2,5.943166E-2,1.7296253E-2,2.3083352E-2,-5.6768943E-2,-3.0040277E-2,4.165354E-2,1.7326115E-2,6.4081065E-2,-5.366332E-2,4.541253E-2,5.611533E-2,-4.63248E-3,1.2603044E-2,6.437179E-2,4.6879914E-2,-1.8443007E-2],"categories":[],"categories_nodes":[],"categories_segments":[],"categories_sizes":[],"default_left":[0,0,0,0,0,0,0,0,0,0,0,0,0,0,0,0,0,0,0,0,0,0,0,0,0,0,0,0,0,0,0,0,0,0,0,0,0,0,0,0,0,0,0,0,0,0,0,0,0,0,0,0,0,0,0,0,0,0,0,0,0,0,0,0,0,0,0,0,0,0,0,0,0,0,0,0,0],"id":18,"left_children":[1,3,5,7,9,11,13,15,17,19,21,23,25,27,29,31,33,35,37,-1,39,-1,41,43,45,-1,47,49,51,53,55,-1,-1,-1,-1,-1,57,-1,-1,-1,59,-1,-1,61,63,-1,65,-1,67,-1,-1,69,71,-1,73,-1,75,-1,-1,-1,-1,-1,-1,-1,-1,-1,-1,-1,-1,-1,-1,-1,-1,-1,-1,-1,-1],"loss_changes":[2.1477846E2,1.887461E1,3.3582306E1,2.1914713E1,9.289169E0,1.8564423E1,3.442997E1,2.1721287E0,1.4186035E1,1.3362885E0,9.764291E0,1.8834438E1,6.893616E-1,8.917799E0,3.7892075E0,3.7152672E-1,1.8954723E0,2.7632463E0,9.7447205E-1,0E0,7.6789856E-1,0E0,7.367685E0,1.925159E1,2.5681953E0,0E0,6.203308E-1,1.7092934E0,4.0124483E0,3.2543945E0,2.5016272E0,0E0,0E0,0E0,0E0,0E0,9.6964407E-1,0E0,0E0,0E0,3.475647E-1,0E0,0E0,2.298355E-3,4.6818714E0,0E0,2.501987E0,0E0,1.9015503E-1,0E0,0E0,5.776495E0,2.173342E0,0E0,1.2074089E0,0E0,1.9463435E0,0E0,0E0,0E0,0E0,0E0,0E0,0E0,0E0,0E0,0E0,0E0,0E0,0E0,0E0,0E0,0E0,0E0,0E0,0E0,0E0],"parents":[2147483647,0,0,1,1,2,2,3,3,4,4,5,5,6,6,7,7,8,8,9,9,10,10,11,11,12,12,13,13,14,14,15,15,16,16,17,17,18,18,20,20,22,22,23,23,24,24,26,26,27,27,28,28,29,29,30,30,36,36,40,40,43,43,44,44,46,46,48,48,51,51,52,52,54,54,56,56],"right_children":[2,4,6,8,10,12,14,16,18,20,22,24,26,28,30,32,34,36,38,-1,40,-1,42,44,46,-1,48,50,52,54,56,-1,-1,-1,-1,-1,58,-1,-1,-1,60,-1,-1,62,64,-1,66,-1,68,-1,-1,70,72,-1,74,-1,76,-1,-1,-1,-1,-1,-1,-1,-1,-1,-1,-1,-1,-1,-1,-1,-1,-1,-1,-1,-1],"split_conditions":[-9.81858E-2,-5.9391266E-1,4.785512E-1,-5.667156E-1,1.0152423E0,-3.939744E-1,3.8354927E-1,7.9617697E-1,-4.8741627E-1,-1.7720908E0,-4.7744268E-1,3.7095535E-1,-1.6070516E0,4.1022536E-1,8.177028E-1,-5.964033E-1,7.757551E-1,-1.2362282E0,9.495847E-1,-5.0270804E-3,-1.7432469E0,-5.7823982E-2,4.0062305E-1,-4.4697106E-1,2.4871989E-1,1.563908E-2,-8.215623E-2,3.6601308E-1,1.108291E-1,-9.3611735E-1,-2.2536895E-1,-6.436837E-2,-2.0212568E-2,2.9314473E-2,-3.8001306E-2,1.7864771E-2,-2.2687055E-1,6.4489365E-2,7.6737716E-3,-1.1634026E-2,-1.7492697E0,6.2838964E-2,-3.779696E-2,5.302617E-1,-9.3353987E-1,6.370591E-2,-2.9852992E-1,1.7350923E-2,-4.032099E-2,-6.542145E-2,-7.1657547E-3,1.182554E0,8.371504E-1,-1.0059956E-2,-1.1482246E0,-4.201972E-2,6.1937255E-1,-3.5099934E-3,-5.9754886E-2,-1.4045767E-2,-6.361481E-2,5.943166E-2,1.7296253E-2,2.3083352E-2,-5.6768943E-2,-3.0040277E-2,4.165354E-2,1.7326115E-2,6.4081065E-2,-5.366332E-2,4.541253E-2,5.611533E-2,-4.63248E-3,1.2603044E-2,6.437179E-2,4.6879914E-2,-1.8443007E-2],"split_indices":[0,5,5,0,12,12,0,12,12,33,0,0,8,12,29,0,49,5,30,0,15,0,5,5,5,0,0,0,0,2,34,0,0,0,0,0,28,0,0,0,11,0,0,18,29,0,13,0,49,0,0,12,5,0,33,0,17,0,0,0,0,0,0,0,0,0,0,0,0,0,0,0,0,0,0,0,0],"split_type":[0,0,0,0,0,0,0,0,0,0,0,0,0,0,0,0,0,0,0,0,0,0,0,0,0,0,0,0,0,0,0,0,0,0,0,0,0,0,0,0,0,0,0,0,0,0,0,0,0,0,0,0,0,0,0,0,0,0,0,0,0,0,0,0,0,0,0,0,0,0,0,0,0,0,0,0,0],"sum_hessian":[3.122971E2,1.3859525E2,1.7370183E2,3.220579E1,1.0638946E2,1.2484864E2,4.8853188E1,1.5702606E1,1.6503187E1,9.517533E1,1.1214129E1,3.686456E1,8.7984085E1,2.5869614E1,2.2983574E1,1.3502227E1,2.200379E0,5.9723716E0,1.0530815E1,1.1997483E0,9.397558E1,5.1570334E0,6.0570955E0,1.9336273E1,1.7528286E1,1.5537239E0,8.643036E1,1.5807559E1,1.0062054E1,1.8670815E1,4.312758E0,1.1792758E1,1.7094687E0,1.1399528E0,1.060426E0,1.5540657E0,4.418306E0,9.40212E0,1.1286954E0,1.2335484E0,9.2742035E1,4.0314374E0,2.0256581E0,5.8517904E0,1.3484483E1,1.4600939E1,2.9273467E0,1.629709E0,8.480065E1,1.4146517E1,1.6610427E0,5.346785E0,4.7152686E0,1.5390731E0,1.7131742E1,1.1702062E0,3.142552E0,1.0897882E0,3.3285177E0,1.0062112E0,9.1735825E1,4.7988214E0,1.0529687E0,1.5830019E0,1.1901481E1,1.3634894E0,1.5638573E0,1.1021644E0,8.369849E1,4.151222E0,1.1955627E0,2.3261628E0,2.3891058E0,1.8073697E0,1.5324372E1,1.9905626E0,1.1519895E0],"tree_param":{"num_deleted":"0","num_feature":"56","num_nodes":"77","size_leaf_vector":"1"}},{"base_weights":[-1.4774145E-2,-7.0512694E-1,8.946243E-1,-1.0947498E0,-2.0342714E-1,1.1485602E0,3.8280666E-1,-1.377053E-1,-1.2048411E0,6.631887E-1,-7.7789706E-1,4.819708E-1,1.1773515E0,-3.511522E-1,1.1351724E0,-5.708012E-1,6.728594E-1,-1.2603836E0,-8.9104015E-1,1.0340642E0,2.4120077E-1,-3.7486625E-1,-1.0370716E0,-2.0120284E-2,4.234613E-2,7.7401173E-1,1.2193555E0,-1.0453783E0,6.6899516E-2,1.2270086E0,7.081251E-3,3.402095E-2,-8.905282E-1,5.1906507E-2,-9.803689E-3,-6.359586E-2,-1.4115155E-2,-1.2894948E-1,-1.0800214E0,1.1443821E0,-2.366578E-3,-2.0370376E-1,7.179872E-1,6.501394E-1,-5.409303E-1,-6.178637E-2,-1.1291076E0,-9.21611E-3,9.981573E-1,1.2378409E0,1.1702147E-2,-2.8419867E-1,-6.2163275E-2,3.919488E-1,-7.209585E-1,6.334209E-2,1.1489515E-2,-5.8322597E-2,5.910772E-3,3.4432605E-2,-3.4702525E-2,-1.4485595E-2,-6.052984E-2,6.386599E-2,2.5407622E-2,-3.380137E-2,2.4962028E-2,-1.2489609E-2,4.6686333E-2,4.1117005E-2,8.001433E-3,1.6185611E-2,-3.6164667E-2,-2.6973153E-2,2.5921742E-2,-6.1228316E-2,-1.8495549E-2,-1.0005834E-3,5.676798E-2,6.243491E-2,1.7505111E-2,1.625015E-2,-3.8197737E-2,3.9926823E-2,-2.5514448E-2,4.546656E-3,-5.7234656E-2],"categories":[],"categories_nodes":[],"categories_segments":[],"categories_sizes":[],"default_left":[0,0,0,0,0,0,0,0,0,0,0,0,0,0,0,0,0,0,0,0,0,0,0,0,0,0,0,0,0,0,0,0,0,0,0,0,0,0,0,0,0,0,0,0,0,0,0,0,0,0,0,0,0,0,0,0,0,0,0,0,0,0,0,0,0,0,0,0,0,0,0,0,0,0,0,0,0,0,0,0,0,0,0,0,0,0,0],"id":19,"left_children":[1,3,5,7,9,11,13,15,17,19,21,23,25,27,29,31,33,35,37,39,41,43,45,-1,-1,47,49,51,53,55,-1,-1,57,-1,-1,-1,-1,59,61,63,-1,65,67,69,71,73,75,-1,77,79,-1,81,-1,83,85,-1,-1,-1,-1,-1,-1,-1,-1,-1,-1,-1,-1,-1,-1,-1,-1,-1,-1,-1,-1,-1,-1,-1,-1,-1,-1,-1,-1,-1,-1,-1,-1],"loss_changes":[1.9087828E2,3.3559753E1,1.6613808E1,1.0059402E1,3.873761E1,1.1060791E0,2.5254417E1,4.2951927E0,3.9170837E-1,4.624913E0,4.4819336E0,2.0525367E0,4.6063995E-1,6.904207E0,1.8758736E0,3.7272544E0,1.5806646E0,4.4667053E-1,2.2344656E0,1.995388E0,3.51326E0,3.724687E0,2.426815E0,0E0,0E0,2.4516234E0,1.0460968E0,9.888878E-1,4.2872386E0,5.2051353E-1,0E0,0E0,1.9881358E0,0E0,0E0,0E0,0E0,2.5157714E0,9.981632E-1,6.0315895E-1,0E0,3.3223023E0,1.8790884E0,1.3990724E-1,3.0091276E0,1.2376103E0,1.3847084E0,0E0,1.2396717E0,2.5444794E-1,0E0,1.1645288E0,0E0,4.7061257E0,1.796521E0,0E0,0E0,0E0,0E0,0E0,0E0,0E0,0E0,0E0,0E0,0E0,0E0,0E0,0E0,0E0,0E0,0E0,0E0,0E0,0E0,0E0,0E0,0E0,0E0,0E0,0E0,0E0,0E0,0E0,0E0,0E0,0E0],"parents":[2147483647,0,0,1,1,2,2,3,3,4,4,5,5,6,6,7,7,8,8,9,9,10,10,11,11,12,12,13,13,14,14,15,15,16,16,17,17,18,18,19,19,20,20,21,21,22,22,25,25,26,26,27,27,28,28,29,29,32,32,37,37,38,38,39,39,41,41,42,42,43,43,44,44,45,45,46,46,48,48,49,49,51,51,53,53,54,54],"right_children":[2,4,6,8,10,12,14,16,18,20,22,24,26,28,30,32,34,36,38,40,42,44,46,-1,-1,48,50,52,54,56,-1,-1,58,-1,-1,-1,-1,60,62,64,-1,66,68,70,72,74,76,-1,78,80,-1,82,-1,84,86,-1,-1,-1,-1,-1,-1,-1,-1,-1,-1,-1,-1,-1,-1,-1,